
\data\
ngram 1=17968
ngram 2=6449
ngram 3=7978
ngram 4=531

\1-grams:
-1.266284	</s>
-99	<s>	-0.1270698
-3.795175	a	-0.07595716
-3.609024	ai	-0.0981852
-4.175079	am	-0.1000855
-3.153865	an	-0.0739747
-4.92313	ang
-3.153865	anh	-0.06969201
-3.609024	ao	-0.07563471
-4.92313	au
-4.92313	ay
-2.361823	ba	-0.2149926
-4.92313	bai
-4.92313	bam
-3.068768	ban	-0.1240142
-4.92313	bang
-4.92313	banh
-3.795175	bao	-0.09360021
-4.92313	bau
-4.175079	bay	-0.09889591
-4.92313	be
-4.92313	bem
-4.92313	ben
-4.92313	beng
-4.92313	beo
-4.92313	bi
-4.92313	bia
-4.92313	bim
-4.92313	bin
-4.92313	binh
-4.92313	biu
-4.92313	biêm
-4.175079	biên	-0.0761399
-4.92313	biêng
-4.92313	biêu
-4.92313	biếc
-4.92313	biếm
-3.153865	biến	-0.09272505
-4.92313	biếng
-4.92313	biếp
-3.068768	biết	-0.06623653
-4.92313	biếu
-4.92313	biềm
-4.92313	biền
-4.92313	biềng
-4.92313	biều
-4.92313	biểm
-4.92313	biển
-4.92313	biểng
-3.609024	biểu	-0.09954135
-4.92313	biễm
-4.92313	biễn
-4.92313	biễng
-4.92313	biễu
-4.92313	biệc
-4.92313	biệm
-3.795175	biện	-0.2156233
-4.92313	biệng
-4.92313	biệp
-4.175079	biệt	-0.09730469
-4.92313	biệu
-4.92313	bo
-4.92313	boa
-4.92313	boai
-4.92313	boam
-4.92313	boan
-4.92313	boang
-4.92313	boanh
-4.92313	boao
-4.92313	boay
-4.92313	boe
-4.92313	boem
-4.92313	boen
-4.92313	boeo
-4.92313	boi
-4.92313	bom
-4.92313	bon
-4.92313	bong
-4.92313	boong
-4.92313	boài
-4.92313	boàm
-4.92313	boàn
-4.92313	boàng
-4.92313	boành
-4.92313	boào
-4.92313	boày
-4.92313	boác
-4.92313	boách
-4.92313	boái
-4.92313	boám
-4.92313	boán
-4.92313	boáng
-4.92313	boánh
-4.92313	boáo
-4.92313	boáp
-4.92313	boát
-4.92313	boáy
-4.92313	boãi
-4.92313	boãm
-4.92313	boãn
-4.92313	boãng
-4.92313	boãnh
-4.92313	boão
-4.92313	boãy
-4.92313	boèm
-4.92313	boèn
-4.92313	boèo
-4.92313	boém
-4.92313	boén
-4.92313	boéo
-4.92313	boét
-4.92313	boòng
-4.92313	boóc
-4.92313	boóng
-4.92313	boõng
-4.92313	boăm
-4.92313	boăn
-4.92313	boăng
-4.92313	boạc
-4.92313	boạch
-4.92313	boại
-4.92313	boạm
-4.92313	boạn
-4.92313	boạng
-4.92313	boạnh
-4.92313	boạo
-4.92313	boạp
-4.92313	boạt
-4.92313	boạy
-4.92313	boải
-4.92313	boảm
-4.92313	boản
-4.92313	boảng
-4.92313	boảnh
-4.92313	boảo
-4.92313	boảy
-4.92313	boắc
-4.92313	boắm
-4.92313	boắn
-4.92313	boắng
-4.92313	boắt
-4.92313	boằm
-4.92313	boằn
-4.92313	boằng
-4.92313	boẳm
-4.92313	boẳn
-4.92313	boẳng
-4.92313	boẵm
-4.92313	boẵn
-4.92313	boẵng
-4.92313	boặc
-4.92313	boặm
-4.92313	boặn
-4.92313	boặng
-4.92313	boặt
-4.92313	boẹm
-4.92313	boẹn
-4.92313	boẹo
-4.92313	boẹt
-4.92313	boẻm
-4.92313	boẻn
-4.92313	boẻo
-4.92313	boẽm
-4.92313	boẽn
-4.92313	boẽo
-4.92313	boọc
-4.92313	boọng
-4.92313	boỏng
-4.92313	bu
-4.92313	bua
-4.92313	bui
-4.92313	bum
-4.92313	bun
-4.92313	bung
-4.92313	buy
-4.92313	buya
-4.92313	buyn
-4.92313	buynh
-4.92313	buyu
-4.92313	buyên
-4.92313	buyến
-4.92313	buyết
-4.92313	buyền
-4.92313	buyển
-4.92313	buyễn
-4.92313	buyện
-4.92313	buyệt
-4.92313	buân
-4.92313	buâng
-4.92313	buây
-4.92313	buê
-4.92313	buênh
-4.92313	buôi
-4.92313	buôm
-4.92313	buôn
-4.92313	buông
-4.92313	buýa
-4.92313	buých
-4.92313	buýn
-4.92313	buýnh
-4.92313	buýp
-4.92313	buýt
-4.92313	buýu
-4.92313	buơ
-4.92313	buấn
-4.92313	buấng
-4.92313	buất
-4.92313	buấy
-4.92313	buần
-4.92313	buầng
-4.92313	buầy
-4.92313	buẩn
-4.92313	buẩng
-4.92313	buẩy
-4.92313	buẫn
-4.92313	buẫng
-4.92313	buẫy
-4.92313	buận
-4.92313	buậng
-4.92313	buật
-4.92313	buậy
-4.92313	buế
-4.92313	buếch
-4.92313	buếnh
-4.92313	buề
-4.92313	buềnh
-4.92313	buể
-4.92313	buểnh
-4.92313	buễ
-4.92313	buễnh
-4.92313	buệ
-4.92313	buệch
-4.92313	buệnh
-4.92313	buốc
-4.92313	buối
-4.92313	buốm
-4.92313	buốn
-4.92313	buống
-4.92313	buốp
-4.92313	buốt
-4.92313	buồi
-4.92313	buồm
-3.795175	buồn	-0.0910413
-4.92313	buồng
-3.609024	buổi	-0.09961931
-4.92313	buổm
-4.92313	buổn
-4.92313	buổng
-4.92313	buỗi
-4.92313	buỗm
-4.92313	buỗn
-4.92313	buỗng
-4.175079	buộc	-0.09670647
-4.92313	buội
-4.92313	buộm
-4.92313	buộn
-4.92313	buộng
-4.92313	buộp
-4.92313	buột
-4.92313	buớ
-4.92313	buờ
-4.92313	buở
-4.92313	buỡ
-4.92313	buợ
-4.92313	buỳa
-4.92313	buỳn
-4.92313	buỳnh
-4.92313	buỳu
-4.92313	buỵa
-4.92313	buỵch
-4.92313	buỵn
-4.92313	buỵnh
-4.92313	buỵp
-4.92313	buỵt
-4.92313	buỵu
-4.92313	buỷa
-4.92313	buỷn
-4.92313	buỷnh
-4.92313	buỷu
-4.92313	buỹa
-4.92313	buỹn
-4.92313	buỹnh
-4.92313	buỹu
-4.92313	by
-3.068768	bà	-0.1115254
-3.153865	bài	-0.2926684
-4.92313	bàm
-2.997644	bàn	-0.1794328
-4.92313	bàng
-4.92313	bành
-4.92313	bào
-4.92313	bàu
-4.92313	bày
-4.175079	bá	-0.09942502
-4.92313	bác
-4.175079	bách	-0.0761399
-4.92313	bái
-4.92313	bám
-3.153865	bán	-0.1615952
-4.92313	báng
-4.92313	bánh
-2.835323	báo	-0.1389423
-4.92313	báp
-4.92313	bát
-4.92313	báu
-4.92313	báy
-4.92313	bâm
-4.92313	bân
-4.92313	bâng
-4.92313	bâu
-4.92313	bây
-4.92313	bã
-4.92313	bãi
-4.92313	bãm
-4.92313	bãn
-4.92313	bãng
-4.92313	bãnh
-4.92313	bão
-4.92313	bãu
-4.92313	bãy
-4.175079	bè	-0.1002175
-4.92313	bèm
-4.92313	bèn
-4.92313	bèng
-4.92313	bèo
-3.795175	bé	-0.09911955
-4.92313	béc
-4.92313	bém
-4.92313	bén
-4.92313	béng
-4.92313	béo
-4.92313	bép
-4.92313	bét
-4.92313	bê
-4.92313	bêm
-3.259804	bên	-0.09831716
-4.92313	bênh
-4.92313	bêu
-4.92313	bì
-4.92313	bìa
-4.92313	bìm
-4.92313	bìn
-2.936545	bình	-0.088784
-4.92313	bìu
-4.175079	bí	-0.1001515
-4.92313	bía
-4.92313	bích
-4.92313	bím
-4.92313	bín
-4.92313	bính
-4.92313	bíp
-4.92313	bít
-4.92313	bíu
-4.92313	bò
-4.92313	bòa
-4.92313	bòe
-4.92313	bòi
-4.92313	bòm
-4.92313	bòn
-4.92313	bòng
-4.92313	bó
-4.92313	bóa
-4.175079	bóc	-0.09650689
-4.92313	bóe
-4.92313	bói
-4.92313	bóm
-4.92313	bón
-3.795175	bóng	-0.0983741
-4.92313	bóp
-4.92313	bót
-4.92313	bô
-4.92313	bôi
-4.92313	bôm
-4.92313	bôn
-4.92313	bông
-4.92313	bõ
-4.92313	bõa
-4.92313	bõe
-4.92313	bõi
-4.92313	bõm
-4.92313	bõn
-4.92313	bõng
-4.92313	bù
-4.175079	bùa	-0.1002953
-4.92313	bùi
-4.92313	bùm
-4.92313	bùn
-4.92313	bùng
-4.92313	bùy
-4.175079	bú	-0.09968933
-4.92313	búa
-4.92313	búc
-4.92313	búi
-4.92313	búm
-4.92313	bún
-4.92313	búng
-4.92313	búp
-4.175079	bút	-0.1002953
-4.92313	búy
-4.92313	bý
-4.92313	băm
-4.92313	băn
-4.175079	băng	-0.09949111
-4.92313	bĩ
-4.92313	bĩa
-4.92313	bĩm
-4.92313	bĩn
-4.92313	bĩnh
-4.92313	bĩu
-4.92313	bũ
-4.92313	bũa
-4.92313	bũi
-4.92313	bũm
-4.92313	bũn
-4.92313	bũng
-4.92313	bũy
-4.92313	bơ
-4.92313	bơi
-4.92313	bơm
-4.92313	bơn
-4.92313	bư
-4.92313	bưa
-4.92313	bưi
-4.92313	bưm
-4.92313	bưn
-4.92313	bưng
-4.92313	bưu
-4.92313	bươi
-4.92313	bươm
-4.92313	bươn
-4.92313	bương
-4.92313	bươu
-4.175079	bước	-0.1000855
-4.92313	bưới
-4.92313	bướm
-4.92313	bướn
-4.92313	bướng
-4.92313	bướp
-4.92313	bướt
-4.92313	bướu
-4.92313	bười
-4.92313	bườm
-4.92313	bườn
-4.92313	bường
-4.92313	bườu
-4.92313	bưởi
-4.92313	bưởm
-4.92313	bưởn
-4.92313	bưởng
-4.92313	bưởu
-4.92313	bưỡi
-4.92313	bưỡm
-4.92313	bưỡn
-4.92313	bưỡng
-4.92313	bưỡu
-4.92313	bược
-4.92313	bượi
-4.92313	bượm
-4.92313	bượn
-4.92313	bượng
-4.92313	bượp
-4.92313	bượt
-4.92313	bượu
-4.92313	bạ
-4.92313	bạc
-4.175079	bạch	-0.09949111
-3.795175	bại	-0.09852384
-4.92313	bạm
-3.259804	bạn	-0.0665417
-4.92313	bạng
-4.92313	bạnh
-4.92313	bạo
-4.92313	bạp
-4.92313	bạt
-4.92313	bạu
-4.92313	bạy
-4.92313	bả
-4.92313	bải
-4.92313	bảm
-3.153865	bản	-0.09550994
-4.175079	bảng
-4.92313	bảnh
-3.068768	bảo	-0.1392092
-4.92313	bảu
-2.653548	bảy	-0.1758768
-4.92313	bấc
-4.92313	bấm
-4.92313	bấn
-4.92313	bấng
-4.92313	bấp
-2.882992	bất	-0.1364555
-4.92313	bấu
-4.92313	bấy
-4.92313	bầm
-4.92313	bần
-4.92313	bầng
-4.175079	bầu	-0.1002953
-4.92313	bầy
-4.92313	bẩm
-4.92313	bẩn
-4.92313	bẩng
-4.92313	bẩu
-4.92313	bẩy
-4.92313	bẫm
-4.92313	bẫn
-4.92313	bẫng
-4.92313	bẫu
-4.92313	bẫy
-4.92313	bậc
-4.92313	bậm
-4.92313	bận
-4.92313	bậng
-4.92313	bập
-3.609024	bật	-0.09869336
-4.92313	bậu
-4.92313	bậy
-3.068768	bắc	-0.132377
-4.92313	bắm
-4.92313	bắn
-4.92313	bắng
-4.92313	bắp
-3.259804	bắt	-0.4221276
-4.92313	bằm
-4.92313	bằn
-2.936545	bằng	-0.06887119
-4.92313	bẳm
-4.92313	bẳn
-4.92313	bẳng
-4.92313	bẵm
-4.92313	bẵn
-4.92313	bẵng
-4.92313	bặc
-4.92313	bặm
-4.92313	bặn
-4.92313	bặng
-4.92313	bặp
-4.92313	bặt
-4.92313	bẹ
-4.92313	bẹc
-4.92313	bẹm
-4.92313	bẹn
-4.92313	bẹng
-4.92313	bẹo
-4.92313	bẹp
-4.92313	bẹt
-4.92313	bẻ
-4.92313	bẻm
-4.92313	bẻn
-4.92313	bẻng
-4.92313	bẻo
-4.92313	bẽ
-4.92313	bẽm
-4.92313	bẽn
-4.92313	bẽng
-4.92313	bẽo
-4.92313	bế
-4.92313	bếch
-4.92313	bếm
-4.92313	bến
-4.92313	bếnh
-4.175079	bếp	-0.09995349
-4.92313	bết
-4.92313	bếu
-4.92313	bề
-4.92313	bềm
-4.92313	bền
-4.92313	bềnh
-4.92313	bều
-4.92313	bể
-4.92313	bểm
-4.92313	bển
-4.92313	bểnh
-4.92313	bểu
-4.92313	bễ
-4.92313	bễm
-4.92313	bễn
-4.92313	bễnh
-4.92313	bễu
-4.92313	bệ
-4.92313	bệch
-4.92313	bệm
-4.92313	bện
-3.400219	bệnh	-0.1060478
-4.92313	bệp
-4.92313	bệt
-4.92313	bệu
-4.92313	bỉ
-4.92313	bỉa
-4.92313	bỉm
-4.92313	bỉn
-4.92313	bỉnh
-4.92313	bỉu
-2.548514	bị	-0.07658274
-4.92313	bịa
-4.92313	bịch
-4.92313	bịm
-4.92313	bịn
-4.92313	bịnh
-4.92313	bịp
-4.92313	bịt
-4.92313	bịu
-4.92313	bọ
-4.92313	bọa
-4.92313	bọc
-4.92313	bọe
-4.92313	bọi
-4.92313	bọm
-3.795175	bọn	-0.2155572
-4.92313	bọng
-4.92313	bọp
-4.92313	bọt
-3.609024	bỏ	-0.09998681
-4.92313	bỏa
-4.92313	bỏe
-4.92313	bỏi
-4.92313	bỏm
-4.92313	bỏn
-4.92313	bỏng
-3.609024	bố	-0.1285721
-4.92313	bốc
-4.92313	bối
-4.92313	bốm
-2.464001	bốn	-0.2861938
-4.92313	bống
-4.92313	bốp
-4.92313	bốt
-4.175079	bồ	-0.1002953
-4.175079	bồi	-0.09949111
-4.92313	bồm
-4.92313	bồn
-4.92313	bồng
-3.795175	bổ	-0.2162175
-4.92313	bổi
-4.92313	bổm
-4.92313	bổn
-4.175079	bổng	-0.09644034
-4.92313	bỗ
-4.92313	bỗi
-4.92313	bỗm
-4.92313	bỗn
-4.92313	bỗng
-3.068768	bộ	-0.1099144
-4.92313	bộc
-4.92313	bội
-4.92313	bộm
-4.92313	bộn
-4.92313	bộng
-4.92313	bộp
-4.92313	bột
-4.92313	bớ
-4.92313	bới
-4.92313	bớm
-4.92313	bớn
-4.92313	bớp
-3.795175	bớt	-0.07603561
-4.92313	bờ
-4.92313	bời
-4.92313	bờm
-4.92313	bờn
-4.92313	bở
-3.795175	bởi	-0.09686477
-4.92313	bởm
-4.92313	bởn
-4.92313	bỡ
-4.92313	bỡi
-4.92313	bỡm
-4.92313	bỡn
-4.92313	bợ
-4.92313	bợi
-4.92313	bợm
-4.92313	bợn
-4.92313	bợp
-4.92313	bợt
-4.92313	bụ
-4.92313	bụa
-4.92313	bục
-4.92313	bụi
-4.92313	bụm
-4.92313	bụn
-4.175079	bụng	-0.09962327
-4.92313	bụp
-4.92313	bụt
-4.92313	bụy
-4.92313	bủ
-4.92313	bủa
-4.92313	bủi
-4.92313	bủm
-4.92313	bủn
-4.92313	bủng
-4.92313	bủy
-4.92313	bứ
-4.92313	bứa
-3.795175	bức	-0.0999786
-4.92313	bứi
-4.92313	bứm
-4.92313	bứn
-4.92313	bứng
-4.92313	bứt
-4.92313	bứu
-4.92313	bừ
-4.92313	bừa
-4.92313	bừi
-4.92313	bừm
-4.92313	bừn
-4.92313	bừng
-4.92313	bừu
-4.92313	bử
-4.92313	bửa
-4.92313	bửi
-4.92313	bửm
-4.92313	bửn
-4.92313	bửng
-4.92313	bửu
-4.92313	bữ
-4.92313	bữa
-4.92313	bữi
-4.92313	bữm
-4.92313	bữn
-4.92313	bững
-4.92313	bữu
-4.92313	bự
-4.92313	bựa
-4.92313	bực
-4.92313	bựi
-4.92313	bựm
-4.92313	bựn
-4.92313	bựng
-4.92313	bựt
-4.92313	bựu
-4.92313	bỳ
-4.92313	bỵ
-4.92313	bỷ
-4.92313	bỹ
-3.795175	ca	-0.1002257
-4.175079	cai	-0.07304363
-4.92313	cam
-3.795175	can	-0.1002257
-4.92313	cang
-3.400219	canh	-0.07199869
-2.548514	cao	-0.1670299
-4.92313	cau
-4.175079	cay	-0.1002953
-3.795175	cha	-0.09978051
-4.92313	chai
-4.92313	cham
-4.92313	chan
-4.92313	chang
-4.92313	chanh
-4.92313	chao
-4.92313	chau
-4.92313	chay
-4.92313	che
-4.92313	chem
-4.92313	chen
-4.92313	cheng
-4.92313	cheo
-3.068768	chi	-0.1049509
-3.609024	chia	-0.1726627
-4.175079	chim	-0.1002953
-4.92313	chin
-4.175079	chinh	-0.09922668
-4.92313	chiu
-4.92313	chiêm
-4.92313	chiên
-4.92313	chiêng
-4.92313	chiêu
-4.175079	chiếc	-0.09922668
-3.400219	chiếm	-0.1293381
-3.153865	chiến	-0.4235158
-4.92313	chiếng
-4.92313	chiếp
-4.92313	chiết
-4.175079	chiếu	-0.1002175
-4.92313	chiềm
-4.92313	chiền
-4.92313	chiềng
-4.175079	chiều	-0.09916054
-4.92313	chiểm
-4.92313	chiển
-4.92313	chiểng
-4.92313	chiểu
-4.92313	chiễm
-4.92313	chiễn
-4.92313	chiễng
-4.92313	chiễu
-4.92313	chiệc
-4.92313	chiệm
-4.92313	chiện
-4.92313	chiệng
-4.92313	chiệp
-4.92313	chiệt
-4.92313	chiệu
-2.050445	cho	-0.1965865
-4.92313	choa
-4.92313	choai
-4.92313	choam
-4.92313	choan
-4.92313	choang
-4.92313	choanh
-4.92313	choao
-4.92313	choay
-4.92313	choe
-4.92313	choem
-4.92313	choen
-4.92313	choeo
-4.92313	choi
-4.92313	chom
-4.92313	chon
-4.92313	chong
-4.92313	choong
-4.92313	choài
-4.92313	choàm
-4.92313	choàn
-4.92313	choàng
-4.92313	choành
-4.92313	choào
-4.92313	choày
-4.92313	choác
-4.92313	choách
-4.92313	choái
-4.92313	choám
-4.92313	choán
-4.92313	choáng
-4.92313	choánh
-4.92313	choáo
-4.92313	choáp
-4.92313	choát
-4.92313	choáy
-4.92313	choãi
-4.92313	choãm
-4.92313	choãn
-4.92313	choãng
-4.92313	choãnh
-4.92313	choão
-4.92313	choãy
-4.92313	choèm
-4.92313	choèn
-4.92313	choèo
-4.92313	choém
-4.92313	choén
-4.92313	choéo
-4.92313	choét
-4.92313	choòng
-4.92313	choóc
-4.92313	choóng
-4.92313	choõng
-4.92313	choăm
-4.92313	choăn
-4.92313	choăng
-4.92313	choạc
-4.92313	choạch
-4.92313	choại
-4.92313	choạm
-4.92313	choạn
-4.92313	choạng
-4.92313	choạnh
-4.92313	choạo
-4.92313	choạp
-4.92313	choạt
-4.92313	choạy
-4.92313	choải
-4.92313	choảm
-4.92313	choản
-4.92313	choảng
-4.92313	choảnh
-4.92313	choảo
-4.92313	choảy
-4.92313	choắc
-4.92313	choắm
-4.92313	choắn
-4.92313	choắng
-4.92313	choắt
-4.92313	choằm
-4.92313	choằn
-4.92313	choằng
-4.92313	choẳm
-4.92313	choẳn
-4.92313	choẳng
-4.92313	choẵm
-4.92313	choẵn
-4.92313	choẵng
-4.92313	choặc
-4.92313	choặm
-4.92313	choặn
-4.92313	choặng
-4.92313	choặt
-4.92313	choẹm
-4.92313	choẹn
-4.92313	choẹo
-4.92313	choẹt
-4.92313	choẻm
-4.92313	choẻn
-4.92313	choẻo
-4.92313	choẽm
-4.92313	choẽn
-4.92313	choẽo
-4.92313	choọc
-4.92313	choọng
-4.92313	choỏng
-4.92313	chu
-4.92313	chua
-4.92313	chui
-4.92313	chum
-4.92313	chun
-3.153865	chung	-0.1067407
-4.92313	chuy
-4.92313	chuya
-4.92313	chuyn
-4.92313	chuynh
-4.92313	chuyu
-3.153865	chuyên	-0.1723821
-4.92313	chuyến
-4.92313	chuyết
-3.795175	chuyền	-0.09728877
-2.409914	chuyển	-0.3419935
-4.92313	chuyễn
-3.609024	chuyện	-0.09702298
-4.92313	chuyệt
-4.92313	chuân
-4.92313	chuâng
-4.92313	chuây
-4.92313	chuê
-4.92313	chuênh
-4.92313	chuôi
-4.92313	chuôm
-4.92313	chuôn
-4.92313	chuông
-4.92313	chuýa
-4.92313	chuých
-4.92313	chuýn
-4.92313	chuýnh
-4.92313	chuýp
-4.92313	chuýt
-4.92313	chuýu
-4.92313	chuơ
-4.92313	chuấn
-4.92313	chuấng
-4.92313	chuất
-4.92313	chuấy
-4.92313	chuần
-4.92313	chuầng
-4.92313	chuầy
-3.609024	chuẩn	-0.1719222
-4.92313	chuẩng
-4.92313	chuẩy
-4.92313	chuẫn
-4.92313	chuẫng
-4.92313	chuẫy
-4.92313	chuận
-4.92313	chuậng
-4.92313	chuật
-4.92313	chuậy
-4.92313	chuế
-4.92313	chuếch
-4.92313	chuếnh
-4.92313	chuề
-4.92313	chuềnh
-4.92313	chuể
-4.92313	chuểnh
-4.92313	chuễ
-4.92313	chuễnh
-4.92313	chuệ
-4.92313	chuệch
-4.92313	chuệnh
-4.92313	chuốc
-4.92313	chuối
-4.92313	chuốm
-4.92313	chuốn
-4.92313	chuống
-4.92313	chuốp
-4.92313	chuốt
-4.92313	chuồi
-4.92313	chuồm
-4.92313	chuồn
-4.92313	chuồng
-4.92313	chuổi
-4.92313	chuổm
-4.92313	chuổn
-4.92313	chuổng
-4.175079	chuỗi	-0.09882972
-4.92313	chuỗm
-4.92313	chuỗn
-4.92313	chuỗng
-4.92313	chuộc
-4.92313	chuội
-4.92313	chuộm
-4.92313	chuộn
-4.92313	chuộng
-4.92313	chuộp
-4.92313	chuột
-4.92313	chuớ
-4.92313	chuờ
-4.92313	chuở
-4.92313	chuỡ
-4.92313	chuợ
-4.92313	chuỳa
-4.92313	chuỳn
-4.92313	chuỳnh
-4.92313	chuỳu
-4.92313	chuỵa
-4.92313	chuỵch
-4.92313	chuỵn
-4.92313	chuỵnh
-4.92313	chuỵp
-4.92313	chuỵt
-4.92313	chuỵu
-4.92313	chuỷa
-4.92313	chuỷn
-4.92313	chuỷnh
-4.92313	chuỷu
-4.92313	chuỹa
-4.92313	chuỹn
-4.92313	chuỹnh
-4.92313	chuỹu
-4.92313	chy
-4.92313	chà
-4.92313	chài
-4.92313	chàm
-4.92313	chàn
-4.175079	chàng	-0.1001515
-4.92313	chành
-4.175079	chào	-0.1002547
-4.92313	chàu
-4.92313	chày
-4.92313	chá
-4.92313	chác
-4.92313	chách
-4.92313	chái
-4.92313	chám
-4.92313	chán
-4.92313	cháng
-4.175079	chánh	-0.0757478
-4.92313	cháo
-4.92313	cháp
-4.92313	chát
-4.175079	cháu	-0.1002547
-2.997644	cháy	-0.08019155
-4.175079	châm	-0.1000855
-3.609024	chân	-0.09948716
-4.92313	châng
-3.400219	châu	-0.09729704
-4.92313	chây
-4.92313	chã
-4.92313	chãi
-4.92313	chãm
-4.92313	chãn
-4.92313	chãng
-4.92313	chãnh
-4.92313	chão
-4.92313	chãu
-4.92313	chãy
-4.92313	chè
-3.795175	chèm	-0.07595716
-4.92313	chèn
-4.92313	chèng
-4.92313	chèo
-4.92313	ché
-4.92313	chéc
-4.92313	chém
-4.92313	chén
-4.92313	chéng
-4.92313	chéo
-4.92313	chép
-4.92313	chét
-4.92313	chê
-4.92313	chêm
-4.92313	chên
-4.92313	chênh
-4.92313	chêu
-4.175079	chì	-0.0761399
-4.92313	chìa
-4.92313	chìm
-4.92313	chìn
-4.92313	chình
-4.92313	chìu
-3.400219	chí	-0.09057881
-4.92313	chía
-4.92313	chích
-4.92313	chím
-2.882992	chín	-0.1563397
-2.684319	chính	-0.1129516
-4.92313	chíp
-4.92313	chít
-4.92313	chíu
-4.92313	chò
-4.92313	chòa
-4.92313	chòe
-4.92313	chòi
-4.92313	chòm
-4.92313	chòn
-4.92313	chòng
-4.92313	chó
-4.92313	chóa
-4.92313	chóc
-4.92313	chóe
-4.92313	chói
-4.92313	chóm
-4.92313	chón
-4.175079	chóng	-0.09466505
-4.92313	chóp
-4.92313	chót
-4.92313	chô
-4.92313	chôi
-4.92313	chôm
-4.92313	chôn
-4.92313	chông
-4.92313	chõ
-4.92313	chõa
-4.92313	chõe
-4.92313	chõi
-4.92313	chõm
-4.92313	chõn
-4.92313	chõng
-4.92313	chù
-4.92313	chùa
-4.92313	chùi
-4.92313	chùm
-4.92313	chùn
-4.92313	chùng
-4.92313	chùy
-3.795175	chú	-0.2158875
-4.92313	chúa
-4.92313	chúc
-4.92313	chúi
-4.92313	chúm
-4.92313	chún
-3.068768	chúng	-0.4348653
-4.92313	chúp
-4.175079	chút	-0.1002953
-4.92313	chúy
-4.92313	chý
-4.92313	chăm
-4.92313	chăn
-4.92313	chăng
-4.92313	chĩ
-4.92313	chĩa
-4.92313	chĩm
-4.92313	chĩn
-4.92313	chĩnh
-4.92313	chĩu
-4.92313	chũ
-4.92313	chũa
-4.92313	chũi
-4.92313	chũm
-4.92313	chũn
-4.92313	chũng
-4.92313	chũy
-4.92313	chơ
-4.175079	chơi	-0.0991857
-4.92313	chơm
-4.92313	chơn
-4.92313	chư
-2.717437	chưa	-0.1101238
-4.92313	chưi
-4.92313	chưm
-4.92313	chưn
-4.92313	chưng
-4.92313	chưu
-4.92313	chươi
-4.92313	chươm
-4.92313	chươn
-3.400219	chương	-0.4351703
-4.92313	chươu
-4.92313	chước
-4.92313	chưới
-4.92313	chướm
-4.92313	chướn
-4.92313	chướng
-4.92313	chướp
-4.92313	chướt
-4.92313	chướu
-4.92313	chười
-4.92313	chườm
-4.92313	chườn
-4.92313	chường
-4.92313	chườu
-4.92313	chưởi
-4.92313	chưởm
-4.92313	chưởn
-4.92313	chưởng
-4.92313	chưởu
-4.92313	chưỡi
-4.92313	chưỡm
-4.92313	chưỡn
-4.92313	chưỡng
-4.92313	chưỡu
-4.92313	chược
-4.92313	chượi
-4.92313	chượm
-4.92313	chượn
-4.92313	chượng
-4.92313	chượp
-4.92313	chượt
-4.92313	chượu
-4.92313	chạ
-4.92313	chạc
-4.92313	chạch
-4.92313	chại
-4.92313	chạm
-4.92313	chạn
-4.92313	chạng
-4.92313	chạnh
-4.92313	chạo
-4.92313	chạp
-4.92313	chạt
-4.92313	chạu
-3.400219	chạy	-0.1492965
-4.92313	chả
-4.175079	chải	-0.09497366
-4.92313	chảm
-4.92313	chản
-4.92313	chảng
-4.92313	chảnh
-4.92313	chảo
-4.92313	chảu
-4.175079	chảy	-0.0951072
-4.92313	chấc
-3.400219	chấm	-0.1634427
-4.92313	chấn
-4.92313	chấng
-3.795175	chấp	-0.0987225
-2.653548	chất	-0.3603612
-4.92313	chấu
-4.92313	chấy
-4.92313	chầm
-4.92313	chần
-4.92313	chầng
-4.92313	chầu
-4.92313	chầy
-4.92313	chẩm
-4.92313	chẩn
-4.92313	chẩng
-4.92313	chẩu
-4.92313	chẩy
-4.92313	chẫm
-4.92313	chẫn
-4.92313	chẫng
-4.92313	chẫu
-4.92313	chẫy
-4.92313	chậc
-3.400219	chậm	-0.07433271
-4.92313	chận
-4.92313	chậng
-4.92313	chập
-4.92313	chật
-4.92313	chậu
-4.92313	chậy
-3.609024	chắc	-0.09796444
-4.92313	chắm
-4.175079	chắn	-0.09896208
-4.92313	chắng
-4.92313	chắp
-4.92313	chắt
-4.92313	chằm
-4.92313	chằn
-4.92313	chằng
-4.92313	chẳm
-4.92313	chẳn
-4.175079	chẳng	-0.09995349
-4.92313	chẵm
-4.92313	chẵn
-4.92313	chẵng
-4.92313	chặc
-4.92313	chặm
-4.92313	chặn
-4.92313	chặng
-4.92313	chặp
-3.795175	chặt	-0.09918569
-4.92313	chẹ
-4.92313	chẹc
-4.92313	chẹm
-4.92313	chẹn
-4.92313	chẹng
-4.92313	chẹo
-4.92313	chẹp
-4.92313	chẹt
-4.92313	chẻ
-4.92313	chẻm
-4.92313	chẻn
-4.92313	chẻng
-4.92313	chẻo
-4.92313	chẽ
-4.92313	chẽm
-4.92313	chẽn
-4.92313	chẽng
-4.92313	chẽo
-3.259804	chế	-0.2345336
-4.92313	chếch
-4.92313	chếm
-4.92313	chến
-4.92313	chếnh
-4.92313	chếp
-3.400219	chết	-0.06961515
-4.92313	chếu
-4.92313	chề
-4.92313	chềm
-4.92313	chền
-4.92313	chềnh
-4.92313	chều
-4.92313	chể
-4.92313	chểm
-4.92313	chển
-4.92313	chểnh
-4.92313	chểu
-4.92313	chễ
-4.92313	chễm
-4.92313	chễn
-4.92313	chễnh
-4.92313	chễu
-4.92313	chệ
-4.92313	chệch
-4.92313	chệm
-4.92313	chện
-4.92313	chệnh
-4.92313	chệp
-4.92313	chệt
-4.92313	chệu
-2.464001	chỉ	-0.1535575
-4.92313	chỉa
-4.92313	chỉm
-4.92313	chỉn
-4.175079	chỉnh	-0.07490937
-4.92313	chỉu
-4.175079	chị	-0.09988746
-4.92313	chịa
-4.92313	chịch
-4.92313	chịm
-4.92313	chịn
-4.92313	chịnh
-4.92313	chịp
-4.92313	chịt
-4.175079	chịu	-0.09985476
-4.92313	chọ
-4.92313	chọa
-4.92313	chọc
-4.92313	chọe
-4.92313	chọi
-4.92313	chọm
-4.175079	chọn	-0.1002175
-4.92313	chọng
-4.92313	chọp
-4.92313	chọt
-4.92313	chỏ
-4.92313	chỏa
-4.92313	chỏe
-4.92313	chỏi
-4.92313	chỏm
-4.92313	chỏn
-4.92313	chỏng
-4.92313	chố
-4.92313	chốc
-4.92313	chối
-4.92313	chốm
-4.92313	chốn
-3.795175	chống	-0.0984576
-4.92313	chốp
-4.92313	chốt
-4.92313	chồ
-4.92313	chồi
-4.92313	chồm
-4.92313	chồn
-3.609024	chồng	-0.07116986
-4.92313	chổ
-4.92313	chổi
-4.92313	chổm
-4.92313	chổn
-4.92313	chổng
-3.795175	chỗ	-0.0757478
-4.92313	chỗi
-4.92313	chỗm
-4.92313	chỗn
-4.92313	chỗng
-4.92313	chộ
-4.92313	chộc
-4.92313	chội
-4.92313	chộm
-4.92313	chộn
-4.92313	chộng
-4.92313	chộp
-4.92313	chột
-4.92313	chớ
-4.92313	chới
-4.92313	chớm
-4.92313	chớn
-4.92313	chớp
-4.92313	chớt
-3.795175	chờ	-0.09865629
-4.92313	chời
-4.92313	chờm
-4.92313	chờn
-4.92313	chở
-4.92313	chởi
-4.92313	chởm
-4.92313	chởn
-4.92313	chỡ
-4.92313	chỡi
-4.92313	chỡm
-4.92313	chỡn
-4.92313	chợ
-4.92313	chợi
-4.92313	chợm
-4.92313	chợn
-4.92313	chợp
-4.92313	chợt
-4.92313	chụ
-4.92313	chụa
-4.175079	chục	-0.09988746
-4.92313	chụi
-4.92313	chụm
-4.92313	chụn
-4.92313	chụng
-4.92313	chụp
-4.92313	chụt
-4.92313	chụy
-2.882992	chủ	-0.2121712
-4.92313	chủa
-4.92313	chủi
-4.92313	chủm
-4.92313	chủn
-4.92313	chủng
-4.92313	chủy
-4.92313	chứ
-4.175079	chứa	-0.09677298
-3.400219	chức	-0.1380407
-4.92313	chứi
-4.92313	chứm
-4.92313	chứn
-3.795175	chứng	-0.0987225
-4.92313	chứt
-4.92313	chứu
-4.92313	chừ
-4.92313	chừa
-4.92313	chừi
-4.92313	chừm
-4.92313	chừn
-4.92313	chừng
-4.92313	chừu
-4.92313	chử
-4.92313	chửa
-4.92313	chửi
-4.92313	chửm
-4.92313	chửn
-4.92313	chửng
-4.92313	chửu
-4.92313	chữ
-3.609024	chữa	-0.3100335
-4.92313	chữi
-4.92313	chữm
-4.92313	chữn
-4.175079	chững	-0.09942502
-4.92313	chữu
-4.92313	chự
-4.92313	chựa
-4.92313	chực
-4.92313	chựi
-4.92313	chựm
-4.92313	chựn
-4.92313	chựng
-4.92313	chựt
-4.92313	chựu
-4.92313	chỳ
-4.92313	chỵ
-4.92313	chỷ
-4.92313	chỹ
-4.92313	co
-4.92313	coa
-4.92313	coai
-4.92313	coam
-4.92313	coan
-4.92313	coang
-4.92313	coanh
-4.92313	coao
-4.92313	coay
-4.92313	coe
-4.92313	coem
-4.92313	coen
-4.92313	coeo
-4.175079	coi	-0.09730469
-4.92313	com
-2.753291	con	-0.1396893
-4.92313	cong
-4.92313	coong
-4.92313	coà
-4.92313	coài
-4.92313	coàm
-4.92313	coàn
-4.92313	coàng
-4.92313	coành
-4.92313	coào
-4.92313	coày
-4.92313	coá
-4.92313	coác
-4.92313	coách
-4.92313	coái
-4.92313	coám
-4.92313	coán
-4.92313	coáng
-4.92313	coánh
-4.92313	coáo
-4.92313	coáp
-4.92313	coát
-4.92313	coáy
-4.92313	coã
-4.92313	coãi
-4.92313	coãm
-4.92313	coãn
-4.92313	coãng
-4.92313	coãnh
-4.92313	coão
-4.92313	coãy
-4.92313	coè
-4.92313	coèm
-4.92313	coèn
-4.92313	coèo
-4.92313	coé
-4.92313	coém
-4.92313	coén
-4.92313	coéo
-4.92313	coét
-4.92313	coòng
-4.92313	coóc
-4.92313	coóng
-4.92313	coõng
-4.92313	coăm
-4.92313	coăn
-4.92313	coăng
-4.92313	coạ
-4.92313	coạc
-4.92313	coạch
-4.92313	coại
-4.92313	coạm
-4.92313	coạn
-4.92313	coạng
-4.92313	coạnh
-4.92313	coạo
-4.92313	coạp
-4.92313	coạt
-4.92313	coạy
-4.92313	coả
-4.92313	coải
-4.92313	coảm
-4.92313	coản
-4.92313	coảng
-4.92313	coảnh
-4.92313	coảo
-4.92313	coảy
-4.92313	coắc
-4.92313	coắm
-4.92313	coắn
-4.92313	coắng
-4.92313	coắt
-4.92313	coằm
-4.92313	coằn
-4.92313	coằng
-4.92313	coẳm
-4.92313	coẳn
-4.92313	coẳng
-4.92313	coẵm
-4.92313	coẵn
-4.92313	coẵng
-4.92313	coặc
-4.92313	coặm
-4.92313	coặn
-4.92313	coặng
-4.92313	coặt
-4.92313	coẹ
-4.92313	coẹm
-4.92313	coẹn
-4.92313	coẹo
-4.92313	coẹt
-4.92313	coẻ
-4.92313	coẻm
-4.92313	coẻn
-4.92313	coẻo
-4.92313	coẽ
-4.92313	coẽm
-4.92313	coẽn
-4.92313	coẽo
-4.92313	coọc
-4.92313	coọng
-4.92313	coỏng
-4.92313	cu
-4.175079	cua	-0.0761399
-4.92313	cui
-4.92313	cum
-4.92313	cun
-3.795175	cung	-0.2157554
-4.92313	cuy
-4.92313	cuya
-4.92313	cuyn
-4.92313	cuynh
-4.92313	cuyu
-4.92313	cuyên
-4.92313	cuyến
-4.92313	cuyết
-4.92313	cuyền
-4.92313	cuyển
-4.92313	cuyễn
-4.92313	cuyện
-4.92313	cuyệt
-4.92313	cuân
-4.92313	cuâng
-4.92313	cuây
-4.92313	cuê
-4.92313	cuênh
-4.92313	cuôi
-4.92313	cuôm
-4.92313	cuôn
-4.92313	cuông
-4.92313	cuý
-4.92313	cuýa
-4.92313	cuých
-4.92313	cuýn
-4.92313	cuýnh
-4.92313	cuýp
-4.92313	cuýt
-4.92313	cuýu
-4.92313	cuơ
-4.92313	cuấn
-4.92313	cuấng
-4.92313	cuất
-4.92313	cuấy
-4.92313	cuần
-4.92313	cuầng
-4.92313	cuầy
-4.92313	cuẩn
-4.92313	cuẩng
-4.92313	cuẩy
-4.92313	cuẫn
-4.92313	cuẫng
-4.92313	cuẫy
-4.92313	cuận
-4.92313	cuậng
-4.92313	cuật
-4.92313	cuậy
-4.92313	cuế
-4.92313	cuếch
-4.92313	cuếnh
-4.92313	cuề
-4.92313	cuềnh
-4.92313	cuể
-4.92313	cuểnh
-4.92313	cuễ
-4.92313	cuễnh
-4.92313	cuệ
-4.92313	cuệch
-4.92313	cuệnh
-4.92313	cuốc
-3.153865	cuối	-0.1555661
-4.92313	cuốm
-4.92313	cuốn
-4.92313	cuống
-4.92313	cuốp
-4.92313	cuốt
-4.92313	cuồi
-4.92313	cuồm
-4.92313	cuồn
-4.92313	cuồng
-4.92313	cuổi
-4.92313	cuổm
-4.92313	cuổn
-4.92313	cuổng
-4.92313	cuỗi
-4.92313	cuỗm
-4.92313	cuỗn
-4.92313	cuỗng
-2.753291	cuộc	-0.1761285
-4.92313	cuội
-4.92313	cuộm
-4.92313	cuộn
-4.92313	cuộng
-4.92313	cuộp
-4.92313	cuột
-4.92313	cuớ
-4.92313	cuờ
-4.92313	cuở
-4.92313	cuỡ
-4.92313	cuợ
-4.92313	cuỳ
-4.92313	cuỳa
-4.92313	cuỳn
-4.92313	cuỳnh
-4.92313	cuỳu
-4.92313	cuỵ
-4.92313	cuỵa
-4.92313	cuỵch
-4.92313	cuỵn
-4.92313	cuỵnh
-4.92313	cuỵp
-4.92313	cuỵt
-4.92313	cuỵu
-4.92313	cuỷ
-4.92313	cuỷa
-4.92313	cuỷn
-4.92313	cuỷnh
-4.92313	cuỷu
-4.92313	cuỹ
-4.92313	cuỹa
-4.92313	cuỹn
-4.92313	cuỹnh
-4.92313	cuỹu
-4.92313	cà
-3.400219	cài	-0.4351043
-4.92313	càm
-4.92313	càn
-4.92313	càng
-4.92313	cành
-4.92313	cào
-4.92313	càu
-4.92313	cày
-3.609024	cá	-0.1532951
-2.08114	các	-0.1823423
-2.997644	cách	-0.09267046
-3.153865	cái	-0.09380082
-4.92313	cám
-4.175079	cán	-0.09995349
-4.92313	cáng
-4.175079	cánh	-0.1001515
-3.795175	cáo	-0.08483259
-4.92313	cáp
-4.175079	cát	-0.09935892
-3.795175	cáu	-0.2162953
-4.92313	cáy
-4.92313	câm
-4.92313	cân
-4.92313	câng
-4.175079	câu	-0.1000855
-3.795175	cây	-0.1001885
-4.92313	cã
-4.92313	cãi
-4.92313	cãm
-4.92313	cãn
-4.92313	cãng
-4.92313	cãnh
-4.92313	cão
-4.92313	cãu
-4.92313	cãy
-4.92313	cò
-4.92313	còi
-4.92313	còm
-2.483638	còn	-0.1429853
-4.92313	còng
-2.065521	có	-0.1427723
-4.92313	cóc
-4.92313	cói
-4.92313	cóm
-4.92313	cón
-4.92313	cóng
-4.92313	cóp
-4.92313	cót
-2.936545	cô	-0.1354385
-4.92313	côi
-4.92313	côm
-4.92313	côn
-2.332487	công	-0.294874
-4.92313	cõ
-4.92313	cõi
-4.92313	cõm
-4.92313	cõn
-4.92313	cõng
-4.92313	cù
-4.92313	cùa
-4.92313	cùi
-4.92313	cùm
-4.92313	cùn
-3.068768	cùng	-0.09705313
-3.795175	cú	-0.1002663
-4.92313	cúa
-4.92313	cúc
-4.92313	cúi
-4.92313	cúm
-4.92313	cún
-4.92313	cúng
-4.92313	cúp
-4.92313	cút
-4.92313	căm
-3.609024	căn	-0.1733783
-4.92313	căng
-4.175079	cũ	-0.0761399
-4.92313	cũa
-4.92313	cũi
-4.92313	cũm
-4.92313	cũn
-2.361823	cũng	-0.2332236
-2.653548	cơ	-0.2549943
-4.92313	cơi
-4.92313	cơm
-3.795175	cơn	-0.2162547
-3.400219	cư	-0.0882993
-4.92313	cưa
-4.92313	cưi
-4.92313	cưm
-4.92313	cưn
-4.92313	cưng
-4.92313	cưu
-4.92313	cươi
-4.92313	cươm
-4.92313	cươn
-4.92313	cương
-4.92313	cươu
-3.400219	cước	-0.1366038
-4.175079	cưới	-0.09823361
-4.92313	cướm
-4.92313	cướn
-4.92313	cướng
-4.92313	cướp
-4.92313	cướt
-4.92313	cướu
-4.92313	cười
-4.92313	cườm
-4.92313	cườn
-4.175079	cường	-0.09398021
-4.92313	cườu
-4.92313	cưởi
-4.92313	cưởm
-4.92313	cưởn
-4.92313	cưởng
-4.92313	cưởu
-4.92313	cưỡi
-4.92313	cưỡm
-4.92313	cưỡn
-4.92313	cưỡng
-4.92313	cưỡu
-4.92313	cược
-4.92313	cượi
-4.92313	cượm
-4.92313	cượn
-4.92313	cượng
-4.92313	cượp
-4.92313	cượt
-4.92313	cượu
-4.92313	cạ
-4.92313	cạc
-4.92313	cạch
-4.92313	cại
-4.92313	cạm
-4.175079	cạn	-0.0761399
-4.92313	cạng
-2.997644	cạnh	-0.5466977
-4.92313	cạo
-4.92313	cạp
-4.92313	cạt
-4.92313	cạu
-4.92313	cạy
-3.068768	cả	-0.1150313
-3.400219	cải	-0.215384
-3.609024	cảm	-0.1733241
-3.609024	cản	-0.07184793
-4.92313	cảng
-3.153865	cảnh	-0.09252302
-4.92313	cảo
-4.92313	cảu
-4.92313	cảy
-4.92313	cấc
-3.609024	cấm	-0.1696622
-4.92313	cấn
-4.92313	cấng
-2.882992	cấp	-0.2276426
-4.92313	cất
-4.175079	cấu	-0.09931428
-4.92313	cấy
-4.175079	cầm	-0.1002175
-2.753291	cần	-0.1221436
-4.92313	cầng
-3.153865	cầu	-0.154046
-4.92313	cầy
-4.92313	cẩm
-4.92313	cẩn
-4.92313	cẩng
-4.92313	cẩu
-4.92313	cẩy
-4.92313	cẫm
-4.92313	cẫn
-4.92313	cẫng
-4.92313	cẫu
-4.92313	cẫy
-4.92313	cậc
-4.92313	cậm
-4.92313	cận
-4.92313	cậng
-4.175079	cập	-0.09810103
-4.92313	cật
-3.609024	cậu	-0.1738406
-4.92313	cậy
-4.92313	cắc
-4.175079	cắm	-0.1002175
-4.92313	cắn
-4.92313	cắng
-4.92313	cắp
-4.92313	cắt
-4.92313	cằm
-4.92313	cằn
-4.92313	cằng
-4.92313	cẳm
-4.92313	cẳn
-4.92313	cẳng
-4.92313	cẵm
-4.92313	cẵn
-4.92313	cẵng
-4.92313	cặc
-4.92313	cặm
-4.92313	cặn
-4.92313	cặng
-4.92313	cặp
-4.92313	cặt
-4.92313	cọ
-4.92313	cọc
-4.92313	cọi
-4.92313	cọm
-4.92313	cọn
-4.92313	cọng
-4.92313	cọp
-4.92313	cọt
-4.175079	cỏ	-0.09982143
-4.92313	cỏi
-4.92313	cỏm
-4.92313	cỏn
-4.92313	cỏng
-4.175079	cố	-0.0761399
-4.92313	cốc
-4.175079	cối	-0.0761399
-4.92313	cốm
-4.92313	cốn
-4.92313	cống
-4.92313	cốp
-4.92313	cốt
-4.92313	cồ
-4.92313	cồi
-4.92313	cồm
-4.92313	cồn
-4.92313	cồng
-3.795175	cổ	-0.2162953
-4.92313	cổi
-4.92313	cổm
-4.92313	cổn
-3.795175	cổng	-0.09679827
-4.92313	cỗ
-4.92313	cỗi
-4.92313	cỗm
-4.92313	cỗn
-4.92313	cỗng
-4.92313	cộ
-4.92313	cộc
-4.175079	cội	-0.1000855
-4.92313	cộm
-4.92313	cộn
-3.795175	cộng	-0.2152928
-4.92313	cộp
-4.92313	cột
-4.92313	cớ
-4.92313	cới
-4.92313	cớm
-4.92313	cớn
-4.92313	cớp
-4.92313	cớt
-4.92313	cờ
-4.92313	cời
-4.92313	cờm
-4.92313	cờn
-4.92313	cở
-4.92313	cởi
-4.92313	cởm
-4.92313	cởn
-4.92313	cỡ
-4.92313	cỡi
-4.92313	cỡm
-4.92313	cỡn
-4.92313	cợ
-4.92313	cợi
-4.92313	cợm
-4.92313	cợn
-4.92313	cợp
-4.92313	cợt
-3.609024	cụ	-0.09931795
-4.92313	cụa
-3.153865	cục	-0.2530903
-4.92313	cụi
-4.92313	cụm
-4.92313	cụn
-4.92313	cụng
-4.92313	cụp
-4.92313	cụt
-4.92313	củ
-1.922958	của	-0.1234607
-4.92313	củi
-4.92313	củm
-4.92313	củn
-4.92313	củng
-3.400219	cứ	-0.09571698
-4.92313	cứa
-4.92313	cức
-4.92313	cứi
-4.92313	cứm
-4.92313	cứn
-4.92313	cứng
-4.92313	cứt
-4.175079	cứu	-0.0761399
-4.92313	cừ
-4.92313	cừa
-4.92313	cừi
-4.92313	cừm
-4.92313	cừn
-4.92313	cừng
-4.92313	cừu
-3.400219	cử	-0.1500011
-3.609024	cửa	-0.1290045
-4.92313	cửi
-4.92313	cửm
-4.92313	cửn
-4.92313	cửng
-4.92313	cửu
-4.92313	cữ
-4.92313	cữa
-4.92313	cữi
-4.92313	cữm
-4.92313	cữn
-4.92313	cững
-4.92313	cữu
-4.92313	cự
-4.92313	cựa
-3.795175	cực	-0.09535816
-4.92313	cựi
-4.92313	cựm
-4.92313	cựn
-4.92313	cựng
-4.92313	cựt
-4.175079	cựu	-0.09988746
-4.92313	da
-4.92313	dai
-4.92313	dam
-4.92313	dan
-4.92313	dang
-3.400219	danh	-0.2471232
-4.92313	dao
-4.92313	dau
-4.92313	day
-4.92313	de
-4.92313	dem
-4.92313	den
-4.92313	deng
-4.92313	deo
-3.400219	di	-0.1522236
-4.92313	dia
-4.92313	dim
-4.92313	din
-4.92313	dinh
-4.92313	diu
-4.92313	diêm
-4.92313	diên
-4.92313	diêng
-4.92313	diêu
-4.92313	diếc
-4.92313	diếm
-4.92313	diến
-4.92313	diếng
-4.92313	diếp
-4.92313	diết
-4.92313	diếu
-4.92313	diềm
-4.92313	diền
-4.92313	diềng
-4.92313	diều
-4.92313	diểm
-4.92313	diển
-4.92313	diểng
-4.92313	diểu
-4.92313	diễm
-3.259804	diễn	-0.2911352
-4.92313	diễng
-4.92313	diễu
-4.92313	diệc
-4.92313	diệm
-3.068768	diện	-0.1694605
-4.92313	diệng
-4.92313	diệp
-4.92313	diệt
-4.92313	diệu
-2.835323	do	-0.08726762
-4.92313	doa
-4.92313	doai
-4.92313	doam
-4.92313	doan
-4.92313	doang
-3.068768	doanh	-0.4851794
-4.92313	doao
-4.92313	doay
-4.92313	doe
-4.92313	doem
-4.92313	doen
-4.92313	doeo
-4.92313	doi
-4.92313	dom
-4.92313	don
-4.92313	dong
-4.92313	doong
-4.92313	doài
-4.92313	doàm
-4.92313	doàn
-4.92313	doàng
-4.92313	doành
-4.92313	doào
-4.92313	doày
-4.92313	doác
-4.92313	doách
-4.92313	doái
-4.92313	doám
-4.92313	doán
-4.92313	doáng
-4.92313	doánh
-4.92313	doáo
-4.92313	doáp
-4.92313	doát
-4.92313	doáy
-4.92313	doãi
-4.92313	doãm
-4.92313	doãn
-4.92313	doãng
-4.92313	doãnh
-4.92313	doão
-4.92313	doãy
-4.92313	doèm
-4.92313	doèn
-4.92313	doèo
-4.92313	doém
-4.92313	doén
-4.92313	doéo
-4.92313	doét
-4.92313	doòng
-4.92313	doóc
-4.92313	doóng
-4.92313	doõng
-4.92313	doăm
-4.92313	doăn
-4.92313	doăng
-4.92313	doạc
-4.92313	doạch
-4.92313	doại
-4.92313	doạm
-4.92313	doạn
-4.92313	doạng
-4.92313	doạnh
-4.92313	doạo
-4.92313	doạp
-4.92313	doạt
-4.92313	doạy
-4.92313	doải
-4.92313	doảm
-4.92313	doản
-4.92313	doảng
-4.92313	doảnh
-4.92313	doảo
-4.92313	doảy
-4.92313	doắc
-4.92313	doắm
-4.92313	doắn
-4.92313	doắng
-4.92313	doắt
-4.92313	doằm
-4.92313	doằn
-4.92313	doằng
-4.92313	doẳm
-4.92313	doẳn
-4.92313	doẳng
-4.92313	doẵm
-4.92313	doẵn
-4.92313	doẵng
-4.92313	doặc
-4.92313	doặm
-4.92313	doặn
-4.92313	doặng
-4.92313	doặt
-4.92313	doẹm
-4.92313	doẹn
-4.92313	doẹo
-4.92313	doẹt
-4.92313	doẻm
-4.92313	doẻn
-4.92313	doẻo
-4.92313	doẽm
-4.92313	doẽn
-4.92313	doẽo
-4.92313	doọc
-4.92313	doọng
-4.92313	doỏng
-3.795175	du	-0.09992445
-4.92313	dua
-4.92313	dui
-4.92313	dum
-4.92313	dun
-3.259804	dung	-0.340452
-4.175079	duy	-0.1001515
-4.92313	duya
-4.92313	duyn
-4.92313	duynh
-4.92313	duyu
-4.175079	duyên	-0.1002547
-4.92313	duyến
-4.92313	duyết
-4.92313	duyền
-4.92313	duyển
-4.92313	duyễn
-4.92313	duyện
-4.92313	duyệt
-4.92313	duân
-4.92313	duâng
-4.92313	duây
-4.92313	duê
-4.92313	duênh
-4.92313	duôi
-4.92313	duôm
-4.92313	duôn
-4.92313	duông
-4.92313	duýa
-4.92313	duých
-4.92313	duýn
-4.92313	duýnh
-4.92313	duýp
-4.92313	duýt
-4.92313	duýu
-4.92313	duơ
-4.92313	duấn
-4.92313	duấng
-4.92313	duất
-4.92313	duấy
-4.92313	duần
-4.92313	duầng
-4.92313	duầy
-4.92313	duẩn
-4.92313	duẩng
-4.92313	duẩy
-4.92313	duẫn
-4.92313	duẫng
-4.92313	duẫy
-4.92313	duận
-4.92313	duậng
-4.92313	duật
-4.92313	duậy
-4.92313	duế
-4.92313	duếch
-4.92313	duếnh
-4.92313	duề
-4.92313	duềnh
-4.92313	duể
-4.92313	duểnh
-4.92313	duễ
-4.92313	duễnh
-4.92313	duệ
-4.92313	duệch
-4.92313	duệnh
-4.92313	duốc
-4.92313	duối
-4.92313	duốm
-4.92313	duốn
-4.92313	duống
-4.92313	duốp
-4.92313	duốt
-4.92313	duồi
-4.92313	duồm
-4.92313	duồn
-4.92313	duồng
-4.92313	duổi
-4.92313	duổm
-4.92313	duổn
-4.92313	duổng
-4.92313	duỗi
-4.92313	duỗm
-4.92313	duỗn
-4.92313	duỗng
-4.92313	duộc
-4.92313	duội
-4.92313	duộm
-4.92313	duộn
-4.92313	duộng
-4.92313	duộp
-4.92313	duột
-4.92313	duớ
-4.92313	duờ
-4.92313	duở
-4.92313	duỡ
-4.92313	duợ
-4.92313	duỳa
-4.92313	duỳn
-4.92313	duỳnh
-4.92313	duỳu
-4.92313	duỵa
-4.92313	duỵch
-4.92313	duỵn
-4.92313	duỵnh
-4.92313	duỵp
-4.92313	duỵt
-4.92313	duỵu
-4.92313	duỷa
-4.92313	duỷn
-4.92313	duỷnh
-4.92313	duỷu
-4.92313	duỹa
-4.92313	duỹn
-4.92313	duỹnh
-4.92313	duỹu
-4.92313	dy
-4.92313	dà
-3.609024	dài	-0.1277437
-4.92313	dàm
-4.92313	dàn
-4.92313	dàng
-3.400219	dành	-0.1499345
-4.92313	dào
-4.92313	dàu
-4.175079	dày	-0.1002953
-4.92313	dá
-4.92313	dác
-4.92313	dách
-4.92313	dái
-4.175079	dám	-0.1000446
-4.92313	dán
-3.795175	dáng	-0.07462953
-4.92313	dánh
-4.92313	dáo
-4.92313	dáp
-4.92313	dát
-4.92313	dáu
-4.92313	dáy
-4.92313	dâm
-2.936545	dân	-0.09242736
-3.795175	dâng	-0.2162953
-4.92313	dâu
-3.795175	dây	-0.109647
-4.92313	dã
-4.92313	dãi
-4.92313	dãm
-4.92313	dãn
-4.92313	dãng
-4.92313	dãnh
-4.92313	dão
-4.92313	dãu
-4.92313	dãy
-4.92313	dè
-4.92313	dèm
-4.92313	dèn
-4.92313	dèng
-4.92313	dèo
-4.92313	dé
-4.92313	déc
-4.92313	dém
-4.92313	dén
-4.92313	déng
-4.92313	déo
-4.92313	dép
-4.92313	dét
-4.92313	dê
-4.92313	dêm
-4.92313	dên
-4.92313	dênh
-4.92313	dêu
-4.92313	dì
-4.92313	dìa
-4.92313	dìm
-4.92313	dìn
-4.92313	dình
-4.92313	dìu
-4.92313	dí
-4.92313	día
-4.92313	dích
-4.92313	dím
-4.92313	dín
-4.92313	dính
-4.92313	díp
-4.92313	dít
-4.92313	díu
-4.92313	dò
-4.92313	dòa
-4.92313	dòe
-4.92313	dòi
-4.92313	dòm
-4.92313	dòn
-3.795175	dòng	-0.09972633
-4.92313	dó
-4.92313	dóa
-4.92313	dóc
-4.92313	dóe
-4.92313	dói
-4.92313	dóm
-4.92313	dón
-4.92313	dóng
-4.92313	dóp
-4.92313	dót
-4.92313	dô
-4.92313	dôi
-4.92313	dôm
-4.92313	dôn
-4.92313	dông
-4.92313	dõ
-4.92313	dõa
-4.92313	dõe
-4.175079	dõi	-0.09644034
-4.92313	dõm
-4.92313	dõn
-4.92313	dõng
-4.175079	dù	-0.09273215
-4.92313	dùa
-4.92313	dùi
-4.92313	dùm
-4.92313	dùn
-3.400219	dùng	-0.09089033
-4.92313	dùy
-4.92313	dú
-4.92313	dúa
-4.92313	dúc
-4.92313	dúi
-4.92313	dúm
-4.92313	dún
-4.92313	dúng
-4.92313	dúp
-4.92313	dút
-4.92313	dúy
-4.92313	dý
-4.92313	dăm
-4.92313	dăn
-4.92313	dăng
-4.175079	dĩ	-0.09856489
-4.92313	dĩa
-4.92313	dĩm
-4.92313	dĩn
-4.92313	dĩnh
-4.92313	dĩu
-4.92313	dũ
-4.92313	dũa
-4.92313	dũi
-4.92313	dũm
-4.92313	dũn
-3.795175	dũng	-0.07504922
-4.92313	dũy
-4.92313	dơ
-4.92313	dơi
-4.92313	dơm
-4.92313	dơn
-3.400219	dư	-0.1405361
-4.92313	dưa
-4.92313	dưi
-4.92313	dưm
-4.92313	dưn
-4.92313	dưng
-4.92313	dưu
-4.92313	dươi
-4.92313	dươm
-4.92313	dươn
-3.609024	dương	-0.1265495
-4.92313	dươu
-4.92313	dước
-3.609024	dưới	-0.09888004
-4.92313	dướm
-4.92313	dướn
-4.92313	dướng
-4.92313	dướp
-4.92313	dướt
-4.92313	dướu
-4.92313	dười
-4.92313	dườm
-4.92313	dườn
-4.92313	dường
-4.92313	dườu
-4.92313	dưởi
-4.92313	dưởm
-4.92313	dưởn
-4.92313	dưởng
-4.92313	dưởu
-4.92313	dưỡi
-4.92313	dưỡm
-4.92313	dưỡn
-4.92313	dưỡng
-4.92313	dưỡu
-3.795175	dược	-0.09911955
-4.92313	dượi
-4.92313	dượm
-4.92313	dượn
-4.92313	dượng
-4.92313	dượp
-4.92313	dượt
-4.92313	dượu
-4.92313	dạ
-4.92313	dạc
-4.92313	dạch
-4.175079	dại	-0.09982143
-4.92313	dạm
-4.175079	dạn	-0.1001515
-4.175079	dạng	-0.09689003
-4.92313	dạnh
-4.92313	dạo
-4.92313	dạp
-4.92313	dạt
-4.92313	dạu
-4.92313	dạy
-4.92313	dả
-4.92313	dải
-4.92313	dảm
-4.92313	dản
-4.92313	dảng
-4.92313	dảnh
-4.92313	dảo
-4.92313	dảu
-4.92313	dảy
-4.92313	dấc
-4.92313	dấm
-4.92313	dấn
-4.92313	dấng
-4.92313	dấp
-4.92313	dất
-3.795175	dấu	-0.2156233
-4.92313	dấy
-4.92313	dầm
-4.175079	dần	-0.1000855
-4.92313	dầng
-3.795175	dầu	-0.09905341
-4.92313	dầy
-4.92313	dẩm
-4.92313	dẩn
-4.92313	dẩng
-4.92313	dẩu
-4.92313	dẩy
-4.92313	dẫm
-3.068768	dẫn	-0.1032186
-4.92313	dẫng
-4.92313	dẫu
-4.92313	dẫy
-4.92313	dậc
-4.92313	dậm
-4.92313	dận
-4.92313	dậng
-4.92313	dập
-4.92313	dật
-4.92313	dậu
-4.175079	dậy	-0.0995572
-4.92313	dắc
-4.92313	dắm
-4.92313	dắn
-4.92313	dắng
-4.92313	dắp
-4.92313	dắt
-4.92313	dằm
-4.92313	dằn
-4.92313	dằng
-4.92313	dẳm
-4.92313	dẳn
-4.92313	dẳng
-4.92313	dẵm
-4.92313	dẵn
-4.92313	dẵng
-4.92313	dặc
-4.92313	dặm
-4.92313	dặn
-4.92313	dặng
-4.92313	dặp
-4.92313	dặt
-4.92313	dẹ
-4.92313	dẹc
-4.92313	dẹm
-4.92313	dẹn
-4.92313	dẹng
-4.92313	dẹo
-4.92313	dẹp
-4.92313	dẹt
-4.92313	dẻ
-4.92313	dẻm
-4.92313	dẻn
-4.92313	dẻng
-4.92313	dẻo
-4.92313	dẽ
-4.92313	dẽm
-4.92313	dẽn
-4.92313	dẽng
-4.92313	dẽo
-4.92313	dế
-4.92313	dếch
-4.92313	dếm
-4.92313	dến
-4.92313	dếnh
-4.92313	dếp
-4.92313	dết
-4.92313	dếu
-4.92313	dề
-4.92313	dềm
-4.175079	dền	-0.1002953
-4.92313	dềnh
-4.92313	dều
-4.92313	dể
-4.92313	dểm
-4.92313	dển
-4.92313	dểnh
-4.92313	dểu
-3.795175	dễ	-0.07518902
-4.92313	dễm
-4.92313	dễn
-4.92313	dễnh
-4.92313	dễu
-4.92313	dệ
-4.92313	dệch
-4.92313	dệm
-4.92313	dện
-4.92313	dệnh
-4.92313	dệp
-4.92313	dệt
-4.92313	dệu
-4.92313	dỉ
-4.92313	dỉa
-4.92313	dỉm
-4.92313	dỉn
-4.92313	dỉnh
-4.92313	dỉu
-4.92313	dị
-4.92313	dịa
-2.882992	dịch	-0.278911
-4.92313	dịm
-4.92313	dịn
-4.92313	dịnh
-4.175079	dịp	-0.09968933
-4.92313	dịt
-4.175079	dịu	-0.1002547
-4.92313	dọ
-4.92313	dọa
-4.92313	dọc
-4.92313	dọe
-4.92313	dọi
-4.92313	dọm
-4.92313	dọn
-4.92313	dọng
-4.92313	dọp
-4.92313	dọt
-4.92313	dỏ
-4.92313	dỏa
-4.92313	dỏe
-4.92313	dỏi
-4.92313	dỏm
-4.92313	dỏn
-4.92313	dỏng
-4.92313	dố
-4.92313	dốc
-4.92313	dối
-4.92313	dốm
-4.92313	dốn
-4.92313	dống
-4.92313	dốp
-4.92313	dốt
-4.92313	dồ
-4.92313	dồi
-4.92313	dồm
-3.400219	dồn	-0.153956
-4.92313	dồng
-4.92313	dổ
-4.92313	dổi
-4.92313	dổm
-4.92313	dổn
-4.92313	dổng
-4.92313	dỗ
-4.92313	dỗi
-4.92313	dỗm
-4.92313	dỗn
-4.92313	dỗng
-4.92313	dộ
-4.92313	dộc
-4.92313	dội
-4.92313	dộm
-4.92313	dộn
-4.92313	dộng
-4.92313	dộp
-4.92313	dột
-4.92313	dớ
-4.92313	dới
-4.92313	dớm
-4.92313	dớn
-4.92313	dớp
-4.92313	dớt
-4.92313	dờ
-4.92313	dời
-4.92313	dờm
-4.92313	dờn
-4.175079	dở	-0.09982143
-4.92313	dởi
-4.92313	dởm
-4.92313	dởn
-4.92313	dỡ
-4.92313	dỡi
-4.92313	dỡm
-4.92313	dỡn
-4.92313	dợ
-4.92313	dợi
-4.92313	dợm
-4.92313	dợn
-4.92313	dợp
-4.92313	dợt
-4.175079	dụ	-0.09896208
-4.92313	dụa
-4.175079	dục	-0.09988746
-4.92313	dụi
-4.92313	dụm
-4.92313	dụn
-3.400219	dụng	-0.05068584
-4.92313	dụp
-4.92313	dụt
-4.92313	dụy
-4.92313	dủ
-4.92313	dủa
-4.92313	dủi
-4.92313	dủm
-4.92313	dủn
-4.92313	dủng
-4.92313	dủy
-4.92313	dứ
-4.92313	dứa
-4.92313	dức
-4.92313	dứi
-4.92313	dứm
-4.92313	dứn
-4.92313	dứng
-4.92313	dứt
-4.92313	dứu
-4.92313	dừ
-4.92313	dừa
-4.92313	dừi
-4.92313	dừm
-4.92313	dừn
-3.795175	dừng	-0.1002257
-4.92313	dừu
-4.92313	dử
-4.92313	dửa
-4.92313	dửi
-4.92313	dửm
-4.92313	dửn
-4.92313	dửng
-4.92313	dửu
-4.92313	dữ
-4.92313	dữa
-4.92313	dữi
-4.92313	dữm
-4.92313	dữn
-4.92313	dững
-4.92313	dữu
-2.597864	dự	-0.5215076
-4.92313	dựa
-4.92313	dực
-4.92313	dựi
-4.92313	dựm
-4.92313	dựn
-4.175079	dựng	-0.06474569
-4.92313	dựt
-4.92313	dựu
-4.92313	dỳ
-4.92313	dỵ
-4.92313	dỷ
-4.92313	dỹ
-4.92313	e
-2.753291	em	-0.1363291
-4.92313	en
-4.92313	eng
-4.175079	eo	-0.1002547
-4.92313	ga
-4.92313	gai
-4.92313	gam
-4.92313	gan
-4.92313	gang
-4.92313	ganh
-4.92313	gao
-4.92313	gau
-4.92313	gay
-4.92313	ghe
-4.92313	ghem
-4.92313	ghen
-4.92313	gheng
-4.92313	gheo
-3.795175	ghi	-0.0987225
-4.92313	ghia
-4.92313	ghim
-4.92313	ghin
-4.92313	ghinh
-4.92313	ghiu
-4.92313	ghiêm
-4.92313	ghiên
-4.92313	ghiêng
-4.92313	ghiêu
-4.92313	ghiếc
-4.92313	ghiếm
-4.92313	ghiến
-4.92313	ghiếng
-4.92313	ghiếp
-4.92313	ghiết
-4.92313	ghiếu
-4.92313	ghiềm
-4.92313	ghiền
-4.92313	ghiềng
-4.92313	ghiều
-4.92313	ghiểm
-4.92313	ghiển
-4.92313	ghiểng
-4.92313	ghiểu
-4.92313	ghiễm
-4.92313	ghiễn
-4.92313	ghiễng
-4.92313	ghiễu
-4.92313	ghiệc
-4.92313	ghiệm
-4.92313	ghiện
-4.92313	ghiệng
-4.92313	ghiệp
-4.92313	ghiệt
-4.92313	ghiệu
-4.92313	ghy
-4.92313	ghè
-4.92313	ghèm
-4.92313	ghèn
-4.92313	ghèng
-4.92313	ghèo
-4.92313	ghé
-4.92313	ghéc
-4.92313	ghém
-4.92313	ghén
-4.92313	ghéng
-4.92313	ghéo
-4.92313	ghép
-4.92313	ghét
-4.92313	ghê
-4.92313	ghêm
-4.92313	ghên
-4.92313	ghênh
-4.92313	ghêu
-4.92313	ghì
-4.92313	ghìa
-4.92313	ghìm
-4.92313	ghìn
-4.92313	ghình
-4.92313	ghìu
-4.92313	ghí
-4.92313	ghía
-4.92313	ghích
-4.92313	ghím
-4.92313	ghín
-4.92313	ghính
-4.92313	ghíp
-4.92313	ghít
-4.92313	ghíu
-4.92313	ghý
-4.92313	ghĩ
-4.92313	ghĩa
-4.92313	ghĩm
-4.92313	ghĩn
-4.92313	ghĩnh
-4.92313	ghĩu
-4.92313	ghẹ
-4.92313	ghẹc
-4.92313	ghẹm
-4.92313	ghẹn
-4.92313	ghẹng
-4.92313	ghẹo
-4.92313	ghẹp
-4.92313	ghẹt
-4.92313	ghẻ
-4.92313	ghẻm
-4.92313	ghẻn
-4.92313	ghẻng
-4.92313	ghẻo
-4.92313	ghẽ
-4.92313	ghẽm
-4.92313	ghẽn
-4.92313	ghẽng
-4.92313	ghẽo
-4.92313	ghế
-4.92313	ghếch
-4.92313	ghếm
-4.92313	ghến
-4.92313	ghếnh
-4.92313	ghếp
-4.92313	ghết
-4.92313	ghếu
-4.92313	ghề
-4.92313	ghềm
-4.92313	ghền
-4.92313	ghềnh
-4.92313	ghều
-4.92313	ghể
-4.92313	ghểm
-4.92313	ghển
-4.92313	ghểnh
-4.92313	ghểu
-4.92313	ghễ
-4.92313	ghễm
-4.92313	ghễn
-4.92313	ghễnh
-4.92313	ghễu
-4.92313	ghệ
-4.92313	ghệch
-4.92313	ghệm
-4.92313	ghện
-4.92313	ghệnh
-4.92313	ghệp
-4.92313	ghệt
-4.92313	ghệu
-4.92313	ghỉ
-4.92313	ghỉa
-4.92313	ghỉm
-4.92313	ghỉn
-4.92313	ghỉnh
-4.92313	ghỉu
-4.92313	ghị
-4.92313	ghịa
-4.92313	ghịch
-4.92313	ghịm
-4.92313	ghịn
-4.92313	ghịnh
-4.92313	ghịp
-4.92313	ghịt
-4.92313	ghịu
-4.92313	ghỳ
-4.92313	ghỵ
-4.92313	ghỷ
-4.92313	ghỹ
-4.92313	gi
-2.624814	gia	-0.2615479
-3.795175	giai	-0.2162547
-4.175079	giam	-0.0761399
-3.795175	gian	-0.07815257
-3.795175	giang	-0.09494428
-4.92313	gianh
-2.936545	giao	-0.1641912
-4.92313	giau
-4.92313	giay
-4.92313	gie
-4.92313	giem
-4.92313	gien
-4.92313	gieng
-4.175079	gieo	-0.1002953
-4.92313	gim
-4.92313	gin
-4.92313	ginh
-4.92313	gio
-4.92313	gioa
-4.92313	gioai
-4.92313	gioam
-4.92313	gioan
-4.92313	gioang
-4.92313	gioanh
-4.92313	gioao
-4.92313	gioay
-4.92313	gioe
-4.92313	gioem
-4.92313	gioen
-4.92313	gioeo
-4.92313	gioi
-4.92313	giom
-4.92313	gion
-4.92313	giong
-4.92313	gioong
-4.92313	gioà
-4.92313	gioài
-4.92313	gioàm
-4.92313	gioàn
-4.92313	gioàng
-4.92313	gioành
-4.92313	gioào
-4.92313	gioày
-4.92313	gioá
-4.92313	gioác
-4.92313	gioách
-4.92313	gioái
-4.92313	gioám
-4.92313	gioán
-4.92313	gioáng
-4.92313	gioánh
-4.92313	gioáo
-4.92313	gioáp
-4.92313	gioát
-4.92313	gioáy
-4.92313	gioã
-4.92313	gioãi
-4.92313	gioãm
-4.92313	gioãn
-4.92313	gioãng
-4.92313	gioãnh
-4.92313	gioão
-4.92313	gioãy
-4.92313	gioè
-4.92313	gioèm
-4.92313	gioèn
-4.92313	gioèo
-4.92313	gioé
-4.92313	gioém
-4.92313	gioén
-4.92313	gioéo
-4.92313	gioét
-4.92313	gioòng
-4.92313	gioóc
-4.92313	gioóng
-4.92313	gioõng
-4.92313	gioăm
-4.92313	gioăn
-4.92313	gioăng
-4.92313	gioạ
-4.92313	gioạc
-4.92313	gioạch
-4.92313	gioại
-4.92313	gioạm
-4.92313	gioạn
-4.92313	gioạng
-4.92313	gioạnh
-4.92313	gioạo
-4.92313	gioạp
-4.92313	gioạt
-4.92313	gioạy
-4.92313	gioả
-4.92313	gioải
-4.92313	gioảm
-4.92313	gioản
-4.92313	gioảng
-4.92313	gioảnh
-4.92313	gioảo
-4.92313	gioảy
-4.92313	gioắc
-4.92313	gioắm
-4.92313	gioắn
-4.92313	gioắng
-4.92313	gioắt
-4.92313	gioằm
-4.92313	gioằn
-4.92313	gioằng
-4.92313	gioẳm
-4.92313	gioẳn
-4.92313	gioẳng
-4.92313	gioẵm
-4.92313	gioẵn
-4.92313	gioẵng
-4.92313	gioặc
-4.92313	gioặm
-4.92313	gioặn
-4.92313	gioặng
-4.92313	gioặt
-4.92313	gioẹ
-4.92313	gioẹm
-4.92313	gioẹn
-4.92313	gioẹo
-4.92313	gioẹt
-4.92313	gioẻ
-4.92313	gioẻm
-4.92313	gioẻn
-4.92313	gioẻo
-4.92313	gioẽ
-4.92313	gioẽm
-4.92313	gioẽn
-4.92313	gioẽo
-4.92313	gioọc
-4.92313	gioọng
-4.92313	gioỏng
-4.92313	giu
-4.92313	giua
-4.92313	giui
-4.92313	gium
-4.92313	giun
-4.92313	giung
-4.92313	giuy
-4.92313	giuya
-4.92313	giuyn
-4.92313	giuynh
-4.92313	giuyu
-4.92313	giuyên
-4.92313	giuyến
-4.92313	giuyết
-4.92313	giuyền
-4.92313	giuyển
-4.92313	giuyễn
-4.92313	giuyện
-4.92313	giuyệt
-4.92313	giuân
-4.92313	giuâng
-4.92313	giuây
-4.92313	giuê
-4.92313	giuênh
-4.92313	giuôi
-4.92313	giuôm
-4.92313	giuôn
-4.92313	giuông
-4.92313	giuý
-4.92313	giuýa
-4.92313	giuých
-4.92313	giuýn
-4.92313	giuýnh
-4.92313	giuýp
-4.92313	giuýt
-4.92313	giuýu
-4.92313	giuơ
-4.92313	giuấn
-4.92313	giuấng
-4.92313	giuất
-4.92313	giuấy
-4.92313	giuần
-4.92313	giuầng
-4.92313	giuầy
-4.92313	giuẩn
-4.92313	giuẩng
-4.92313	giuẩy
-4.92313	giuẫn
-4.92313	giuẫng
-4.92313	giuẫy
-4.92313	giuận
-4.92313	giuậng
-4.92313	giuật
-4.92313	giuậy
-4.92313	giuế
-4.92313	giuếch
-4.92313	giuếnh
-4.92313	giuề
-4.92313	giuềnh
-4.92313	giuể
-4.92313	giuểnh
-4.92313	giuễ
-4.92313	giuễnh
-4.92313	giuệ
-4.92313	giuệch
-4.92313	giuệnh
-4.92313	giuốc
-4.92313	giuối
-4.92313	giuốm
-4.92313	giuốn
-4.92313	giuống
-4.92313	giuốp
-4.92313	giuốt
-4.92313	giuồi
-4.92313	giuồm
-4.92313	giuồn
-4.92313	giuồng
-4.92313	giuổi
-4.92313	giuổm
-4.92313	giuổn
-4.92313	giuổng
-4.92313	giuỗi
-4.92313	giuỗm
-4.92313	giuỗn
-4.92313	giuỗng
-4.92313	giuộc
-4.92313	giuội
-4.92313	giuộm
-4.92313	giuộn
-4.92313	giuộng
-4.92313	giuộp
-4.92313	giuột
-4.92313	giuớ
-4.92313	giuờ
-4.92313	giuở
-4.92313	giuỡ
-4.92313	giuợ
-4.92313	giuỳ
-4.92313	giuỳa
-4.92313	giuỳn
-4.92313	giuỳnh
-4.92313	giuỳu
-4.92313	giuỵ
-4.92313	giuỵa
-4.92313	giuỵch
-4.92313	giuỵn
-4.92313	giuỵnh
-4.92313	giuỵp
-4.92313	giuỵt
-4.92313	giuỵu
-4.92313	giuỷ
-4.92313	giuỷa
-4.92313	giuỷn
-4.92313	giuỷnh
-4.92313	giuỷu
-4.92313	giuỹ
-4.92313	giuỹa
-4.92313	giuỹn
-4.92313	giuỹnh
-4.92313	giuỹu
-4.92313	giy
-4.92313	già
-4.92313	giài
-4.92313	giàm
-4.92313	giàn
-4.92313	giàng
-3.795175	giành	-0.2140347
-4.92313	giào
-4.92313	giàu
-4.92313	giày
-2.445213	giá	-0.1405196
-4.175079	giác	-0.1001515
-4.92313	giách
-4.92313	giái
-3.795175	giám	-0.09946204
-4.92313	gián
-4.92313	giáng
-4.92313	giánh
-4.175079	giáo	-0.1002953
-4.92313	giáp
-4.92313	giát
-4.92313	giáu
-4.92313	giáy
-4.92313	giâm
-4.92313	giân
-4.92313	giâng
-4.92313	giâu
-4.175079	giây	-0.1001515
-4.92313	giã
-4.92313	giãi
-4.92313	giãm
-4.92313	giãn
-4.92313	giãng
-4.92313	giãnh
-4.92313	gião
-4.92313	giãu
-4.92313	giãy
-4.92313	giè
-4.92313	gièm
-4.92313	gièn
-4.92313	gièng
-4.92313	gièo
-4.92313	gié
-4.92313	giéc
-4.92313	giém
-4.92313	gién
-4.92313	giéng
-4.92313	giéo
-4.92313	giép
-4.92313	giét
-4.92313	giê
-4.92313	giêm
-4.92313	giên
-4.175079	giêng	-0.09982143
-4.92313	giênh
-4.92313	giêu
-4.175079	giò	-0.1002953
-4.92313	giòi
-4.92313	giòm
-4.92313	giòn
-4.92313	giòng
-3.795175	gió	-0.1002257
-4.92313	gióc
-4.92313	giói
-4.92313	gióm
-4.92313	gión
-4.92313	gióng
-4.92313	gióp
-4.92313	giót
-4.92313	giô
-4.92313	giôi
-4.92313	giôm
-4.92313	giôn
-4.92313	giông
-4.92313	giõ
-4.92313	giõi
-4.92313	giõm
-4.92313	giõn
-4.92313	giõng
-4.92313	giù
-4.92313	giùa
-4.92313	giùi
-4.92313	giùm
-4.92313	giùn
-4.92313	giùng
-4.92313	giú
-4.92313	giúa
-4.92313	giúc
-4.92313	giúi
-4.92313	giúm
-4.92313	giún
-4.92313	giúng
-3.609024	giúp	-0.09649923
-4.92313	giút
-4.92313	giý
-4.92313	giăm
-4.92313	giăn
-4.92313	giăng
-4.92313	giũ
-4.92313	giũa
-4.92313	giũi
-4.92313	giũm
-4.92313	giũn
-4.92313	giũng
-4.92313	giơ
-4.92313	giơi
-4.92313	giơm
-4.92313	giơn
-4.92313	giư
-4.92313	giưa
-4.92313	giưi
-4.92313	giưm
-4.92313	giưn
-4.92313	giưng
-4.92313	giưu
-4.92313	giươi
-4.92313	giươm
-4.92313	giươn
-4.92313	giương
-4.92313	giươu
-4.92313	giước
-4.92313	giưới
-4.92313	giướm
-4.92313	giướn
-4.92313	giướng
-4.92313	giướp
-4.92313	giướt
-4.92313	giướu
-4.92313	giười
-4.92313	giườm
-4.92313	giườn
-4.92313	giường
-4.92313	giườu
-4.92313	giưởi
-4.92313	giưởm
-4.92313	giưởn
-4.92313	giưởng
-4.92313	giưởu
-4.92313	giưỡi
-4.92313	giưỡm
-4.92313	giưỡn
-4.92313	giưỡng
-4.92313	giưỡu
-4.92313	giược
-4.92313	giượi
-4.92313	giượm
-4.92313	giượn
-4.92313	giượng
-4.92313	giượp
-4.92313	giượt
-4.92313	giượu
-4.92313	giạ
-4.92313	giạc
-4.92313	giạch
-4.92313	giại
-4.92313	giạm
-4.92313	giạn
-4.92313	giạng
-4.92313	giạnh
-4.92313	giạo
-4.92313	giạp
-4.92313	giạt
-4.92313	giạu
-4.92313	giạy
-3.795175	giả	-0.09759554
-3.259804	giải	-0.09699008
-2.792373	giảm	-0.1261203
-4.92313	giản
-4.92313	giảng
-4.92313	giảnh
-4.92313	giảo
-4.92313	giảu
-4.92313	giảy
-4.92313	giấc
-4.92313	giấm
-4.92313	giấn
-4.92313	giấng
-4.92313	giấp
-4.92313	giất
-4.92313	giấu
-3.259804	giấy	-0.1903076
-4.92313	giầm
-4.92313	giần
-4.92313	giầng
-4.92313	giầu
-4.92313	giầy
-4.92313	giẩm
-4.92313	giẩn
-4.92313	giẩng
-4.92313	giẩu
-4.92313	giẩy
-4.92313	giẫm
-4.92313	giẫn
-4.92313	giẫng
-4.92313	giẫu
-4.92313	giẫy
-4.92313	giậc
-4.92313	giậm
-4.92313	giận
-4.92313	giậng
-4.92313	giập
-4.92313	giật
-4.92313	giậu
-4.92313	giậy
-4.92313	giắc
-4.92313	giắm
-4.92313	giắn
-4.92313	giắng
-4.92313	giắp
-4.92313	giắt
-4.92313	giằm
-4.92313	giằn
-4.92313	giằng
-4.92313	giẳm
-4.92313	giẳn
-4.92313	giẳng
-4.92313	giẵm
-4.92313	giẵn
-4.92313	giẵng
-4.92313	giặc
-4.92313	giặm
-4.92313	giặn
-4.92313	giặng
-4.92313	giặp
-4.175079	giặt	-0.09497366
-4.92313	giẹ
-4.92313	giẹc
-4.92313	giẹm
-4.92313	giẹn
-4.92313	giẹng
-4.92313	giẹo
-4.92313	giẹp
-4.92313	giẹt
-4.92313	giẻ
-4.92313	giẻm
-4.92313	giẻn
-4.92313	giẻng
-4.92313	giẻo
-4.92313	giẽ
-4.92313	giẽm
-4.92313	giẽn
-4.92313	giẽng
-4.92313	giẽo
-4.92313	giế
-4.92313	giếc
-4.92313	giếch
-4.92313	giếm
-4.92313	giến
-4.92313	giếng
-4.92313	giếnh
-4.92313	giếp
-4.175079	giết	-0.1001515
-4.92313	giếu
-4.92313	giề
-4.92313	giềm
-4.92313	giền
-4.175079	giềng	-0.0761399
-4.92313	giềnh
-4.92313	giều
-4.92313	giể
-4.92313	giểm
-4.92313	giển
-4.92313	giểng
-4.92313	giểnh
-4.92313	giểu
-4.92313	giễ
-4.92313	giễm
-4.92313	giễn
-4.92313	giễng
-4.92313	giễnh
-4.92313	giễu
-4.92313	giệ
-4.92313	giệc
-4.92313	giệch
-4.92313	giệm
-4.92313	giện
-4.92313	giệng
-4.92313	giệnh
-4.92313	giệp
-4.92313	giệt
-4.92313	giệu
-4.92313	giọ
-4.92313	giọc
-4.92313	giọi
-4.92313	giọm
-4.92313	giọn
-4.175079	giọng	-0.1001515
-4.92313	giọp
-4.92313	giọt
-4.92313	giỏ
-4.92313	giỏi
-4.92313	giỏm
-4.92313	giỏn
-4.92313	giỏng
-4.92313	giố
-4.92313	giốc
-4.92313	giối
-4.92313	giốm
-4.92313	giốn
-4.92313	giống
-4.92313	giốp
-4.92313	giốt
-4.92313	giồ
-4.92313	giồi
-4.92313	giồm
-4.92313	giồn
-4.92313	giồng
-4.92313	giổ
-4.92313	giổi
-4.92313	giổm
-4.92313	giổn
-4.92313	giổng
-4.175079	giỗ	-0.09982143
-4.92313	giỗi
-4.92313	giỗm
-4.92313	giỗn
-4.92313	giỗng
-4.92313	giộ
-4.92313	giộc
-4.92313	giội
-4.92313	giộm
-4.92313	giộn
-4.92313	giộng
-4.92313	giộp
-4.92313	giột
-4.92313	giớ
-3.609024	giới	-0.07381138
-4.92313	giớm
-4.92313	giớn
-4.92313	giớp
-4.92313	giớt
-2.936545	giờ	-0.1095524
-4.92313	giời
-4.92313	giờm
-4.92313	giờn
-4.92313	giở
-4.92313	giởi
-4.92313	giởm
-4.92313	giởn
-4.92313	giỡ
-4.92313	giỡi
-4.92313	giỡm
-4.92313	giỡn
-4.92313	giợ
-4.92313	giợi
-4.92313	giợm
-4.92313	giợn
-4.92313	giợp
-4.92313	giợt
-4.92313	giụ
-4.92313	giụa
-4.92313	giục
-4.92313	giụi
-4.92313	giụm
-4.92313	giụn
-4.92313	giụng
-4.92313	giụp
-4.92313	giụt
-4.92313	giủ
-4.92313	giủa
-4.92313	giủi
-4.92313	giủm
-4.92313	giủn
-4.92313	giủng
-4.92313	giứ
-4.92313	giứa
-4.92313	giức
-4.92313	giứi
-4.92313	giứm
-4.92313	giứn
-4.92313	giứng
-4.92313	giứt
-4.92313	giứu
-4.92313	giừ
-4.92313	giừa
-4.92313	giừi
-4.92313	giừm
-4.92313	giừn
-4.92313	giừng
-4.92313	giừu
-4.92313	giử
-4.92313	giửa
-4.92313	giửi
-4.92313	giửm
-4.92313	giửn
-4.92313	giửng
-4.92313	giửu
-4.175079	giữ	-0.09719709
-3.068768	giữa	-0.1498353
-4.92313	giữi
-4.92313	giữm
-4.92313	giữn
-4.92313	giững
-4.92313	giữu
-4.92313	giự
-4.92313	giựa
-4.92313	giực
-4.92313	giựi
-4.92313	giựm
-4.92313	giựn
-4.92313	giựng
-4.92313	giựt
-4.92313	giựu
-4.92313	giỳ
-4.92313	giỵ
-4.92313	giỷ
-4.92313	giỹ
-4.92313	go
-4.92313	goa
-4.92313	goai
-4.92313	goam
-4.92313	goan
-4.92313	goang
-4.92313	goanh
-4.92313	goao
-4.92313	goay
-4.92313	goe
-4.92313	goem
-4.92313	goen
-4.92313	goeo
-4.92313	goi
-4.175079	gom	-0.09803472
-4.92313	gon
-4.92313	gong
-4.92313	goong
-4.92313	goài
-4.92313	goàm
-4.92313	goàn
-4.92313	goàng
-4.92313	goành
-4.92313	goào
-4.92313	goày
-4.92313	goác
-4.92313	goách
-4.92313	goái
-4.92313	goám
-4.92313	goán
-4.92313	goáng
-4.92313	goánh
-4.92313	goáo
-4.92313	goáp
-4.92313	goát
-4.92313	goáy
-4.92313	goãi
-4.92313	goãm
-4.92313	goãn
-4.92313	goãng
-4.92313	goãnh
-4.92313	goão
-4.92313	goãy
-4.92313	goèm
-4.92313	goèn
-4.92313	goèo
-4.92313	goém
-4.92313	goén
-4.92313	goéo
-4.92313	goét
-4.92313	goòng
-4.92313	goóc
-4.92313	goóng
-4.92313	goõng
-4.92313	goăm
-4.92313	goăn
-4.92313	goăng
-4.92313	goạc
-4.92313	goạch
-4.92313	goại
-4.92313	goạm
-4.92313	goạn
-4.92313	goạng
-4.92313	goạnh
-4.92313	goạo
-4.92313	goạp
-4.92313	goạt
-4.92313	goạy
-4.92313	goải
-4.92313	goảm
-4.92313	goản
-4.92313	goảng
-4.92313	goảnh
-4.92313	goảo
-4.92313	goảy
-4.92313	goắc
-4.92313	goắm
-4.92313	goắn
-4.92313	goắng
-4.92313	goắt
-4.92313	goằm
-4.92313	goằn
-4.92313	goằng
-4.92313	goẳm
-4.92313	goẳn
-4.92313	goẳng
-4.92313	goẵm
-4.92313	goẵn
-4.92313	goẵng
-4.92313	goặc
-4.92313	goặm
-4.92313	goặn
-4.92313	goặng
-4.92313	goặt
-4.92313	goẹm
-4.92313	goẹn
-4.92313	goẹo
-4.92313	goẹt
-4.92313	goẻm
-4.92313	goẻn
-4.92313	goẻo
-4.92313	goẽm
-4.92313	goẽn
-4.92313	goẽo
-4.92313	goọc
-4.92313	goọng
-4.92313	goỏng
-4.92313	gu
-4.92313	gua
-4.92313	gui
-4.92313	gum
-4.92313	gun
-4.92313	gung
-4.92313	guy
-4.92313	guya
-4.92313	guyn
-4.92313	guynh
-4.92313	guyu
-4.92313	guyên
-4.92313	guyến
-4.92313	guyết
-4.92313	guyền
-4.92313	guyển
-4.92313	guyễn
-4.92313	guyện
-4.92313	guyệt
-4.92313	guân
-4.92313	guâng
-4.92313	guây
-4.92313	guê
-4.92313	guênh
-4.92313	guôi
-4.92313	guôm
-4.92313	guôn
-4.92313	guông
-4.92313	guýa
-4.92313	guých
-4.92313	guýn
-4.92313	guýnh
-4.92313	guýp
-4.92313	guýt
-4.92313	guýu
-4.92313	guơ
-4.92313	guấn
-4.92313	guấng
-4.92313	guất
-4.92313	guấy
-4.92313	guần
-4.92313	guầng
-4.92313	guầy
-4.92313	guẩn
-4.92313	guẩng
-4.92313	guẩy
-4.92313	guẫn
-4.92313	guẫng
-4.92313	guẫy
-4.92313	guận
-4.92313	guậng
-4.92313	guật
-4.92313	guậy
-4.92313	guế
-4.92313	guếch
-4.92313	guếnh
-4.92313	guề
-4.92313	guềnh
-4.92313	guể
-4.92313	guểnh
-4.92313	guễ
-4.92313	guễnh
-4.92313	guệ
-4.92313	guệch
-4.92313	guệnh
-4.175079	guốc	-0.09650689
-4.92313	guối
-4.92313	guốm
-4.92313	guốn
-4.92313	guống
-4.92313	guốp
-4.92313	guốt
-4.92313	guồi
-4.92313	guồm
-4.92313	guồn
-4.92313	guồng
-4.92313	guổi
-4.92313	guổm
-4.92313	guổn
-4.92313	guổng
-4.92313	guỗi
-4.92313	guỗm
-4.92313	guỗn
-4.92313	guỗng
-4.92313	guộc
-4.92313	guội
-4.92313	guộm
-4.92313	guộn
-4.92313	guộng
-4.92313	guộp
-4.92313	guột
-4.92313	guớ
-4.92313	guờ
-4.92313	guở
-4.92313	guỡ
-4.92313	guợ
-4.92313	guỳa
-4.92313	guỳn
-4.92313	guỳnh
-4.92313	guỳu
-4.92313	guỵa
-4.92313	guỵch
-4.92313	guỵn
-4.92313	guỵnh
-4.92313	guỵp
-4.92313	guỵt
-4.92313	guỵu
-4.92313	guỷa
-4.92313	guỷn
-4.92313	guỷnh
-4.92313	guỷu
-4.92313	guỹa
-4.92313	guỹn
-4.92313	guỹnh
-4.92313	guỹu
-4.175079	gà	-0.09829988
-4.92313	gài
-4.92313	gàm
-4.92313	gàn
-4.92313	gàng
-4.92313	gành
-4.92313	gào
-4.92313	gàu
-4.92313	gày
-4.92313	gá
-4.92313	gác
-4.92313	gách
-3.400219	gái	-0.0856903
-4.92313	gám
-4.92313	gán
-4.92313	gáng
-4.92313	gánh
-4.92313	gáo
-4.92313	gáp
-4.92313	gát
-4.92313	gáu
-4.92313	gáy
-4.92313	gâm
-4.92313	gân
-4.92313	gâng
-4.92313	gâu
-3.259804	gây	-0.09880991
-4.92313	gã
-4.92313	gãi
-4.92313	gãm
-4.92313	gãn
-4.92313	gãng
-4.92313	gãnh
-4.92313	gão
-4.92313	gãu
-4.92313	gãy
-4.175079	gì	-0.0979273
-4.92313	gìa
-4.92313	gìm
-4.92313	gìn
-4.92313	gình
-4.92313	gìu
-4.92313	gí
-4.92313	gía
-4.92313	gích
-4.92313	gím
-4.92313	gín
-4.92313	gính
-4.92313	gíp
-4.92313	gít
-4.92313	gíu
-4.92313	gò
-4.92313	gòa
-4.92313	gòe
-4.92313	gòi
-4.92313	gòm
-4.175079	gòn
-4.92313	gòng
-4.92313	gó
-4.92313	góa
-4.175079	góc	-0.1002175
-4.92313	góe
-3.609024	gói	-0.3102975
-4.92313	góm
-4.92313	gón
-4.92313	góng
-4.175079	góp	-0.09988746
-4.92313	gót
-4.92313	gô
-4.92313	gôi
-4.92313	gôm
-4.92313	gôn
-4.92313	gông
-4.92313	gõ
-4.92313	gõa
-4.92313	gõe
-4.92313	gõi
-4.92313	gõm
-4.92313	gõn
-4.92313	gõng
-4.92313	gù
-4.92313	gùa
-4.92313	gùi
-4.92313	gùm
-4.92313	gùn
-4.92313	gùng
-4.92313	gùy
-4.92313	gú
-4.92313	gúa
-4.92313	gúc
-4.92313	gúi
-4.92313	gúm
-4.92313	gún
-4.92313	gúng
-4.92313	gúp
-4.92313	gút
-4.92313	gúy
-4.92313	găm
-4.92313	găn
-4.92313	găng
-4.92313	gĩ
-4.92313	gĩa
-4.92313	gĩm
-4.92313	gĩn
-4.92313	gĩnh
-4.92313	gĩu
-4.92313	gũ
-4.92313	gũa
-4.92313	gũi
-4.92313	gũm
-4.92313	gũn
-4.92313	gũng
-4.92313	gũy
-4.92313	gơ
-4.92313	gơi
-4.92313	gơm
-4.92313	gơn
-4.92313	gư
-4.92313	gưa
-4.92313	gưi
-4.92313	gưm
-4.92313	gưn
-4.92313	gưng
-4.92313	gưu
-4.92313	gươi
-4.92313	gươm
-4.92313	gươn
-4.92313	gương
-4.92313	gươu
-4.92313	gước
-4.92313	gưới
-4.92313	gướm
-4.92313	gướn
-4.92313	gướng
-4.92313	gướp
-4.92313	gướt
-4.92313	gướu
-4.92313	gười
-4.92313	gườm
-4.92313	gườn
-4.92313	gường
-4.92313	gườu
-4.92313	gưởi
-4.92313	gưởm
-4.92313	gưởn
-4.92313	gưởng
-4.92313	gưởu
-4.92313	gưỡi
-4.92313	gưỡm
-4.92313	gưỡn
-4.92313	gưỡng
-4.92313	gưỡu
-4.92313	gược
-4.92313	gượi
-4.92313	gượm
-4.92313	gượn
-4.92313	gượng
-4.92313	gượp
-4.92313	gượt
-4.92313	gượu
-4.92313	gạ
-4.92313	gạc
-4.92313	gạch
-4.92313	gại
-4.92313	gạm
-4.92313	gạn
-4.92313	gạng
-4.92313	gạnh
-2.997644	gạo	-0.2047734
-4.92313	gạp
-4.92313	gạt
-4.92313	gạu
-4.92313	gạy
-4.92313	gả
-4.92313	gải
-4.92313	gảm
-4.92313	gản
-4.92313	gảng
-4.92313	gảnh
-4.92313	gảo
-4.92313	gảu
-4.92313	gảy
-4.92313	gấc
-4.92313	gấm
-4.92313	gấn
-4.92313	gấng
-4.175079	gấp	-0.09703892
-4.92313	gất
-4.92313	gấu
-4.92313	gấy
-4.92313	gầm
-3.259804	gần	-0.06640055
-4.92313	gầng
-4.92313	gầu
-4.92313	gầy
-4.92313	gẩm
-4.92313	gẩn
-4.92313	gẩng
-4.92313	gẩu
-4.92313	gẩy
-4.92313	gẫm
-4.92313	gẫn
-4.92313	gẫng
-4.92313	gẫu
-4.92313	gẫy
-4.92313	gậc
-4.92313	gậm
-4.92313	gận
-4.92313	gậng
-4.92313	gập
-4.92313	gật
-4.92313	gậu
-4.92313	gậy
-4.92313	gắc
-4.92313	gắm
-3.795175	gắn	-0.2141673
-4.92313	gắng
-4.92313	gắp
-4.175079	gắt	-0.09497366
-4.92313	gằm
-4.92313	gằn
-4.92313	gằng
-4.92313	gẳm
-4.92313	gẳn
-4.92313	gẳng
-4.92313	gẵm
-4.92313	gẵn
-4.92313	gẵng
-4.92313	gặc
-4.92313	gặm
-4.92313	gặn
-4.92313	gặng
-3.609024	gặp	-0.1717896
-4.175079	gặt	-0.09988746
-4.92313	gỉ
-4.92313	gỉa
-4.92313	gỉm
-4.92313	gỉn
-4.92313	gỉnh
-4.92313	gỉu
-4.92313	gị
-4.92313	gịa
-4.92313	gịch
-4.92313	gịm
-4.92313	gịn
-4.92313	gịnh
-4.92313	gịp
-4.92313	gịt
-4.92313	gịu
-4.92313	gọ
-4.92313	gọa
-4.92313	gọc
-4.92313	gọe
-2.882992	gọi	-0.06728281
-4.92313	gọm
-4.175079	gọn	-0.09968933
-4.92313	gọng
-4.92313	gọp
-4.92313	gọt
-4.92313	gỏ
-4.92313	gỏa
-4.92313	gỏe
-4.92313	gỏi
-4.92313	gỏm
-4.92313	gỏn
-4.92313	gỏng
-4.92313	gố
-3.609024	gốc	-0.06937578
-4.92313	gối
-4.92313	gốm
-4.92313	gốn
-4.92313	gống
-4.92313	gốp
-4.92313	gốt
-4.92313	gồ
-4.92313	gồi
-3.400219	gồm	-0.09479468
-4.92313	gồn
-4.92313	gồng
-4.92313	gổ
-4.92313	gổi
-4.92313	gổm
-4.92313	gổn
-4.92313	gổng
-4.92313	gỗ
-4.92313	gỗi
-4.92313	gỗm
-4.92313	gỗn
-4.92313	gỗng
-4.92313	gộ
-4.92313	gộc
-4.92313	gội
-4.92313	gộm
-4.92313	gộn
-4.92313	gộng
-4.92313	gộp
-4.92313	gột
-4.92313	gớ
-4.92313	gới
-4.92313	gớm
-4.92313	gớn
-4.92313	gớp
-4.92313	gớt
-4.92313	gờ
-4.92313	gời
-4.92313	gờm
-4.92313	gờn
-4.92313	gở
-4.175079	gởi	-0.09988746
-4.92313	gởm
-4.92313	gởn
-3.609024	gỡ	-0.1277668
-4.92313	gỡi
-4.92313	gỡm
-4.92313	gỡn
-4.92313	gợ
-4.175079	gợi	-0.1001515
-4.92313	gợm
-4.92313	gợn
-4.92313	gợp
-4.92313	gợt
-4.92313	gụ
-4.92313	gụa
-4.92313	gục
-4.92313	gụi
-4.92313	gụm
-4.92313	gụn
-4.92313	gụng
-4.92313	gụp
-4.92313	gụt
-4.92313	gụy
-4.92313	gủ
-4.92313	gủa
-4.92313	gủi
-4.92313	gủm
-4.92313	gủn
-4.92313	gủng
-4.92313	gủy
-4.92313	gứ
-4.92313	gứa
-4.92313	gức
-4.92313	gứi
-4.92313	gứm
-4.92313	gứn
-4.92313	gứng
-4.92313	gứt
-4.92313	gứu
-4.92313	gừ
-4.92313	gừa
-4.92313	gừi
-4.92313	gừm
-4.92313	gừn
-4.92313	gừng
-4.92313	gừu
-4.92313	gử
-4.92313	gửa
-3.609024	gửi	-0.0994465
-4.92313	gửm
-4.92313	gửn
-4.92313	gửng
-4.92313	gửu
-4.92313	gữ
-4.92313	gữa
-4.92313	gữi
-4.92313	gữm
-4.92313	gữn
-4.92313	gững
-4.92313	gữu
-4.92313	gự
-4.92313	gựa
-4.92313	gực
-4.92313	gựi
-4.92313	gựm
-4.92313	gựn
-4.92313	gựng
-4.92313	gựt
-4.92313	gựu
-4.175079	ha	-0.09968933
-2.122835	hai	-0.3059315
-4.92313	ham
-4.92313	han
-4.92313	hang
-4.175079	hanh	-0.1002547
-4.92313	hao
-4.92313	hau
-3.068768	hay	-0.1050119
-4.92313	he
-4.92313	hem
-4.92313	hen
-4.92313	heng
-4.92313	heo
-4.92313	hi
-4.92313	hia
-4.92313	him
-4.92313	hin
-4.92313	hinh
-4.92313	hiu
-4.92313	hiêm
-4.175079	hiên	-0.09922668
-4.92313	hiêng
-4.92313	hiêu
-4.92313	hiếc
-4.92313	hiếm
-4.92313	hiến
-4.92313	hiếng
-4.92313	hiếp
-4.92313	hiết
-4.175079	hiếu	-0.1001515
-4.92313	hiềm
-3.795175	hiền	-0.2162953
-4.92313	hiềng
-4.92313	hiều
-4.92313	hiểm
-4.175079	hiển	-0.09869732
-4.92313	hiểng
-3.259804	hiểu	-0.06935458
-4.92313	hiễm
-4.92313	hiễn
-4.92313	hiễng
-4.92313	hiễu
-4.92313	hiệc
-4.92313	hiệm
-2.684319	hiện	-0.09209366
-4.92313	hiệng
-3.259804	hiệp	-0.09657735
-4.92313	hiệt
-2.792373	hiệu	-0.2250755
-4.92313	ho
-3.795175	hoa	-0.09486549
-4.92313	hoai
-4.92313	hoam
-4.92313	hoan
-4.175079	hoang	-0.1001515
-4.92313	hoanh
-4.92313	hoao
-4.92313	hoay
-4.92313	hoe
-4.92313	hoem
-4.92313	hoen
-4.92313	hoeo
-4.92313	hoi
-4.92313	hom
-4.92313	hon
-4.92313	hong
-4.92313	hoong
-4.175079	hoài	-0.1002547
-4.92313	hoàm
-2.997644	hoàn	-0.3296296
-3.795175	hoàng	-0.09898724
-4.175079	hoành	-0.1000855
-4.92313	hoào
-4.92313	hoày
-4.92313	hoác
-4.92313	hoách
-4.92313	hoái
-4.92313	hoám
-4.92313	hoán
-4.92313	hoáng
-4.92313	hoánh
-4.92313	hoáo
-4.92313	hoáp
-4.92313	hoát
-4.92313	hoáy
-4.92313	hoãi
-4.92313	hoãm
-4.92313	hoãn
-4.92313	hoãng
-4.92313	hoãnh
-4.92313	hoão
-4.92313	hoãy
-4.92313	hoèm
-4.92313	hoèn
-4.92313	hoèo
-4.92313	hoém
-4.92313	hoén
-4.92313	hoéo
-4.92313	hoét
-4.92313	hoòng
-4.92313	hoóc
-4.92313	hoóng
-4.92313	hoõng
-4.92313	hoăm
-4.92313	hoăn
-4.92313	hoăng
-4.92313	hoạc
-3.609024	hoạch	-0.08538871
-4.92313	hoại
-4.92313	hoạm
-4.175079	hoạn	-0.09849865
-4.92313	hoạng
-4.92313	hoạnh
-4.92313	hoạo
-4.92313	hoạp
-2.997644	hoạt	-0.3571002
-4.92313	hoạy
-4.92313	hoải
-4.92313	hoảm
-4.92313	hoản
-4.175079	hoảng	-0.1002953
-4.92313	hoảnh
-4.92313	hoảo
-4.92313	hoảy
-4.92313	hoắc
-4.92313	hoắm
-4.92313	hoắn
-4.92313	hoắng
-4.92313	hoắt
-4.92313	hoằm
-4.92313	hoằn
-4.92313	hoằng
-4.92313	hoẳm
-4.92313	hoẳn
-4.92313	hoẳng
-4.92313	hoẵm
-4.92313	hoẵn
-4.92313	hoẵng
-3.795175	hoặc	-0.0956623
-4.92313	hoặm
-4.92313	hoặn
-4.92313	hoặng
-4.92313	hoặt
-4.92313	hoẹm
-4.92313	hoẹn
-4.92313	hoẹo
-4.92313	hoẹt
-4.92313	hoẻm
-4.92313	hoẻn
-4.92313	hoẻo
-4.92313	hoẽm
-4.92313	hoẽn
-4.92313	hoẽo
-4.92313	hoọc
-4.92313	hoọng
-4.92313	hoỏng
-4.92313	hu
-4.92313	hua
-4.92313	hui
-4.92313	hum
-4.92313	hun
-4.92313	hung
-3.609024	huy	-0.1724522
-4.92313	huya
-4.92313	huyn
-4.92313	huynh
-4.92313	huyu
-4.92313	huyên
-4.92313	huyến
-4.92313	huyết
-4.92313	huyền
-4.92313	huyển
-4.92313	huyễn
-2.653548	huyện	-0.1542393
-4.92313	huyệt
-4.92313	huân
-4.92313	huâng
-4.92313	huây
-4.92313	huê
-4.92313	huênh
-4.92313	huôi
-4.92313	huôm
-4.92313	huôn
-4.92313	huông
-4.92313	huýa
-4.92313	huých
-4.92313	huýn
-4.92313	huýnh
-4.92313	huýp
-4.92313	huýt
-4.92313	huýu
-4.92313	huơ
-3.609024	huấn	-0.1499052
-4.92313	huấng
-4.92313	huất
-4.92313	huấy
-4.92313	huần
-4.92313	huầng
-4.92313	huầy
-4.92313	huẩn
-4.92313	huẩng
-4.92313	huẩy
-4.92313	huẫn
-4.92313	huẫng
-4.92313	huẫy
-4.92313	huận
-4.92313	huậng
-4.92313	huật
-4.92313	huậy
-3.400219	huế	-0.09708577
-4.92313	huếch
-4.92313	huếnh
-4.92313	huề
-4.92313	huềnh
-4.92313	huể
-4.92313	huểnh
-4.92313	huễ
-4.92313	huễnh
-4.175079	huệ	-0.09573297
-4.92313	huệch
-4.92313	huệnh
-4.92313	huốc
-4.92313	huối
-4.92313	huốm
-4.92313	huốn
-4.92313	huống
-4.92313	huốp
-4.92313	huốt
-4.92313	huồi
-4.92313	huồm
-4.92313	huồn
-4.92313	huồng
-4.92313	huổi
-4.92313	huổm
-4.92313	huổn
-4.92313	huổng
-4.92313	huỗi
-4.92313	huỗm
-4.92313	huỗn
-4.92313	huỗng
-4.92313	huộc
-4.92313	huội
-4.92313	huộm
-4.92313	huộn
-4.92313	huộng
-4.92313	huộp
-4.92313	huột
-4.92313	huớ
-4.92313	huờ
-4.92313	huở
-4.92313	huỡ
-4.92313	huợ
-4.92313	huỳa
-4.92313	huỳn
-3.795175	huỳnh	-0.09988746
-4.92313	huỳu
-4.92313	huỵa
-4.92313	huỵch
-4.92313	huỵn
-4.92313	huỵnh
-4.92313	huỵp
-4.92313	huỵt
-4.92313	huỵu
-4.92313	huỷa
-4.92313	huỷn
-4.92313	huỷnh
-4.92313	huỷu
-4.92313	huỹa
-4.92313	huỹn
-4.92313	huỹnh
-4.92313	huỹu
-4.175079	hy	-0.1001515
-2.597864	hà	-0.4652118
-3.795175	hài	-0.1001479
-4.175079	hàm	-0.09975538
-4.92313	hàn
-2.835323	hàng	-0.1000745
-2.936545	hành	-0.1342024
-4.92313	hào
-4.92313	hàu
-4.92313	hày
-4.92313	há
-4.92313	hác
-4.92313	hách
-4.92313	hái
-4.92313	hám
-4.92313	hán
-4.92313	háng
-4.92313	hánh
-4.92313	háo
-4.92313	háp
-4.175079	hát	-0.07353503
-4.92313	háu
-4.92313	háy
-4.92313	hâm
-4.92313	hân
-4.92313	hâng
-4.92313	hâu
-4.92313	hây
-4.92313	hã
-4.92313	hãi
-4.92313	hãm
-4.92313	hãn
-4.92313	hãng
-4.92313	hãnh
-4.92313	hão
-4.92313	hãu
-4.92313	hãy
-4.175079	hè	-0.0984324
-4.92313	hèm
-4.92313	hèn
-4.92313	hèng
-4.92313	hèo
-4.92313	hé
-3.609024	héc	-0.3102975
-4.92313	hém
-4.92313	hén
-4.92313	héng
-4.92313	héo
-4.92313	hép
-4.92313	hét
-4.92313	hê
-4.92313	hêm
-4.92313	hên
-4.92313	hênh
-4.92313	hêu
-4.92313	hì
-4.92313	hìa
-4.92313	hìm
-4.92313	hìn
-2.684319	hình	-0.09694791
-4.92313	hìu
-4.92313	hí
-4.92313	hía
-4.92313	hích
-4.92313	hím
-4.92313	hín
-4.92313	hính
-4.92313	híp
-4.92313	hít
-4.92313	híu
-4.92313	hò
-3.068768	hòa	-0.07997096
-4.92313	hòe
-4.92313	hòi
-4.92313	hòm
-4.92313	hòn
-4.92313	hòng
-4.92313	hó
-2.882992	hóa	-0.1113622
-4.92313	hóc
-4.92313	hóe
-4.92313	hói
-4.92313	hóm
-4.92313	hón
-4.92313	hóng
-4.92313	hóp
-4.92313	hót
-4.92313	hô
-4.175079	hôi	-0.0992928
-4.175079	hôm	-0.1002175
-4.175079	hôn	-0.0761399
-4.175079	hông	-0.09882972
-4.92313	hõ
-4.92313	hõa
-4.92313	hõe
-4.92313	hõi
-4.92313	hõm
-4.92313	hõn
-4.92313	hõng
-4.92313	hù
-4.92313	hùa
-4.92313	hùi
-4.92313	hùm
-4.92313	hùn
-3.609024	hùng	-0.1688327
-4.92313	hùy
-4.92313	hú
-4.92313	húa
-4.92313	húc
-4.92313	húi
-4.92313	húm
-4.92313	hún
-4.92313	húng
-4.92313	húp
-4.175079	hút	-0.09819253
-4.92313	húy
-4.92313	hý
-4.92313	hăm
-4.92313	hăn
-4.92313	hăng
-4.92313	hĩ
-4.92313	hĩa
-4.92313	hĩm
-4.92313	hĩn
-4.92313	hĩnh
-4.92313	hĩu
-4.92313	hũ
-4.92313	hũa
-4.92313	hũi
-4.92313	hũm
-4.92313	hũn
-4.92313	hũng
-4.92313	hũy
-4.92313	hơ
-4.92313	hơi
-4.92313	hơm
-2.792373	hơn	-0.1186952
-4.175079	hư	-0.0992928
-4.92313	hưa
-4.92313	hưi
-4.92313	hưm
-4.92313	hưn
-3.795175	hưng	-0.1000446
-4.92313	hưu
-4.92313	hươi
-4.92313	hươm
-4.92313	hươn
-4.175079	hương	-0.1002953
-4.92313	hươu
-4.92313	hước
-4.92313	hưới
-4.92313	hướm
-4.92313	hướn
-2.882992	hướng	-0.301056
-4.92313	hướp
-4.92313	hướt
-4.92313	hướu
-4.92313	hười
-4.92313	hườm
-4.92313	hườn
-4.92313	hường
-4.92313	hườu
-4.92313	hưởi
-4.92313	hưởm
-4.92313	hưởn
-3.795175	hưởng	-0.09662401
-4.92313	hưởu
-4.92313	hưỡi
-4.92313	hưỡm
-4.92313	hưỡn
-4.92313	hưỡng
-4.92313	hưỡu
-4.92313	hược
-4.92313	hượi
-4.92313	hượm
-4.92313	hượn
-4.92313	hượng
-4.92313	hượp
-4.92313	hượt
-4.92313	hượu
-3.795175	hạ	-0.09796476
-4.92313	hạc
-4.92313	hạch
-4.92313	hại
-4.92313	hạm
-3.153865	hạn	-0.255005
-4.175079	hạng	-0.0990944
-4.92313	hạnh
-4.92313	hạo
-4.92313	hạp
-4.175079	hạt	-0.1002547
-4.92313	hạu
-4.92313	hạy
-4.92313	hả
-3.259804	hải	-0.189378
-4.92313	hảm
-4.92313	hản
-4.92313	hảng
-4.92313	hảnh
-4.92313	hảo
-4.92313	hảu
-4.92313	hảy
-4.92313	hấc
-4.92313	hấm
-4.92313	hấn
-4.92313	hấng
-3.795175	hấp	-0.2159535
-4.92313	hất
-4.92313	hấu
-4.92313	hấy
-4.92313	hầm
-4.92313	hần
-4.92313	hầng
-3.609024	hầu	-0.1726508
-4.92313	hầy
-4.92313	hẩm
-4.92313	hẩn
-4.92313	hẩng
-4.92313	hẩu
-4.92313	hẩy
-4.92313	hẫm
-4.92313	hẫn
-4.92313	hẫng
-4.92313	hẫu
-4.92313	hẫy
-4.92313	hậc
-4.92313	hậm
-4.92313	hận
-4.92313	hậng
-4.92313	hập
-4.92313	hật
-3.609024	hậu	-0.09981748
-4.92313	hậy
-4.92313	hắc
-4.92313	hắm
-4.92313	hắn
-4.92313	hắng
-4.92313	hắp
-4.92313	hắt
-4.92313	hằm
-4.92313	hằn
-3.795175	hằng	-0.09885489
-4.92313	hẳm
-4.175079	hẳn	-0.09968933
-4.92313	hẳng
-4.92313	hẵm
-4.92313	hẵn
-4.92313	hẵng
-4.92313	hặc
-4.92313	hặm
-4.92313	hặn
-4.92313	hặng
-4.92313	hặp
-4.92313	hặt
-4.92313	hẹ
-4.92313	hẹc
-4.92313	hẹm
-4.175079	hẹn	-0.1002547
-4.92313	hẹng
-4.92313	hẹo
-3.795175	hẹp	-0.0754685
-4.92313	hẹt
-4.92313	hẻ
-4.92313	hẻm
-4.92313	hẻn
-4.92313	hẻng
-4.92313	hẻo
-4.92313	hẽ
-4.92313	hẽm
-4.92313	hẽn
-4.92313	hẽng
-4.92313	hẽo
-4.92313	hế
-4.92313	hếch
-4.92313	hếm
-4.92313	hến
-4.92313	hếnh
-4.92313	hếp
-3.609024	hết	-0.09535816
-4.92313	hếu
-4.92313	hề
-4.92313	hềm
-4.92313	hền
-4.92313	hềnh
-4.92313	hều
-4.92313	hể
-4.92313	hểm
-4.92313	hển
-4.92313	hểnh
-4.92313	hểu
-4.92313	hễ
-4.92313	hễm
-4.92313	hễn
-4.92313	hễnh
-4.92313	hễu
-3.068768	hệ	-0.3767785
-4.92313	hệch
-4.92313	hệm
-4.92313	hện
-4.92313	hệnh
-4.92313	hệp
-4.92313	hệt
-4.92313	hệu
-4.92313	hỉ
-4.92313	hỉa
-4.92313	hỉm
-4.92313	hỉn
-4.92313	hỉnh
-4.92313	hỉu
-4.92313	hị
-4.92313	hịa
-4.92313	hịch
-4.92313	hịm
-4.92313	hịn
-4.92313	hịnh
-4.92313	hịp
-4.92313	hịt
-4.92313	hịu
-3.068768	họ	-0.08981992
-4.175079	họa	-0.09962327
-3.400219	học	-0.0753679
-4.92313	họe
-4.92313	họi
-4.92313	họm
-4.92313	họn
-4.92313	họng
-3.400219	họp	-0.1535477
-4.92313	họt
-4.92313	hỏ
-4.175079	hỏa	-0.1002953
-4.92313	hỏe
-3.795175	hỏi	-0.09805626
-4.92313	hỏm
-4.92313	hỏn
-4.92313	hỏng
-4.92313	hố
-4.92313	hốc
-4.92313	hối
-4.92313	hốm
-4.92313	hốn
-4.92313	hống
-4.92313	hốp
-4.175079	hốt	-0.1000855
-3.259804	hồ	-0.1675994
-3.609024	hồi	-0.1411329
-4.92313	hồm
-4.175079	hồn	-0.1002953
-3.609024	hồng	-0.07539865
-4.92313	hổ
-4.92313	hổi
-4.92313	hổm
-4.92313	hổn
-4.92313	hổng
-3.400219	hỗ	-0.4353801
-4.92313	hỗi
-4.92313	hỗm
-4.92313	hỗn
-4.92313	hỗng
-2.882992	hộ	-0.1241594
-4.92313	hộc
-2.525795	hội	-0.113012
-4.92313	hộm
-4.92313	hộn
-4.92313	hộng
-4.92313	hộp
-4.92313	hột
-4.92313	hớ
-4.92313	hới
-4.92313	hớm
-4.92313	hớn
-4.92313	hớp
-4.92313	hớt
-4.92313	hờ
-4.92313	hời
-4.92313	hờm
-4.92313	hờn
-4.92313	hở
-4.92313	hởi
-4.92313	hởm
-4.92313	hởn
-4.92313	hỡ
-4.92313	hỡi
-4.92313	hỡm
-4.92313	hỡn
-4.92313	hợ
-4.92313	hợi
-4.92313	hợm
-4.92313	hợn
-2.753291	hợp	-0.1584293
-4.92313	hợt
-4.92313	hụ
-4.92313	hụa
-4.92313	hục
-4.92313	hụi
-4.92313	hụm
-4.92313	hụn
-4.92313	hụng
-4.175079	hụp	-0.1002547
-4.92313	hụt
-4.92313	hụy
-4.92313	hủ
-4.92313	hủa
-4.92313	hủi
-4.92313	hủm
-4.92313	hủn
-4.92313	hủng
-4.92313	hủy
-4.92313	hứ
-3.795175	hứa	-0.1001885
-4.92313	hức
-4.92313	hứi
-4.92313	hứm
-4.92313	hứn
-4.175079	hứng	-0.0951072
-4.92313	hứt
-4.92313	hứu
-4.92313	hừ
-4.92313	hừa
-4.92313	hừi
-4.92313	hừm
-4.92313	hừn
-4.92313	hừng
-4.92313	hừu
-4.92313	hử
-4.92313	hửa
-4.92313	hửi
-4.92313	hửm
-4.92313	hửn
-4.92313	hửng
-4.92313	hửu
-4.92313	hữ
-4.92313	hữa
-4.92313	hữi
-4.92313	hữm
-4.92313	hữn
-4.92313	hững
-3.795175	hữu	-0.0987225
-4.92313	hự
-4.92313	hựa
-4.92313	hực
-4.92313	hựi
-4.92313	hựm
-4.92313	hựn
-4.92313	hựng
-4.92313	hựt
-4.92313	hựu
-4.92313	hỳ
-4.92313	hỵ
-4.92313	hỷ
-4.92313	hỹ
-4.175079	i	-0.0761399
-4.92313	ia
-4.92313	im
-4.92313	in
-4.92313	inh
-4.92313	iu
-4.92313	iêm
-4.92313	iên
-4.92313	iêng
-4.92313	iêu
-4.92313	iếc
-4.92313	iếm
-4.92313	iến
-4.92313	iếng
-4.92313	iếp
-4.92313	iết
-4.92313	iếu
-4.92313	iềm
-4.92313	iền
-4.92313	iềng
-4.92313	iều
-4.92313	iểm
-4.92313	iển
-4.92313	iểng
-4.92313	iểu
-4.92313	iễm
-4.92313	iễn
-4.92313	iễng
-4.92313	iễu
-4.92313	iệc
-4.92313	iệm
-4.92313	iện
-4.92313	iệng
-4.92313	iệp
-4.92313	iệt
-4.92313	iệu
-4.92313	ke
-4.92313	kem
-4.92313	ken
-4.92313	keng
-4.92313	keo
-4.92313	kha
-2.936545	khai	-0.1335785
-4.92313	kham
-4.92313	khan
-4.92313	khang
-4.92313	khanh
-4.92313	khao
-4.92313	khau
-4.92313	khay
-4.92313	khe
-4.92313	khem
-4.92313	khen
-4.92313	kheng
-4.92313	kheo
-2.653548	khi	-0.08948506
-4.92313	khia
-4.92313	khim
-4.92313	khin
-4.92313	khinh
-4.92313	khiu
-4.175079	khiêm	-0.1002953
-4.92313	khiên
-4.92313	khiêng
-4.92313	khiêu
-4.92313	khiếc
-4.92313	khiếm
-4.175079	khiến	-0.09644034
-4.92313	khiếng
-4.92313	khiếp
-4.92313	khiết
-3.795175	khiếu	-0.1001885
-4.92313	khiềm
-4.92313	khiền
-4.92313	khiềng
-4.92313	khiều
-4.92313	khiểm
-4.92313	khiển
-4.92313	khiểng
-4.92313	khiểu
-4.92313	khiễm
-4.92313	khiễn
-4.92313	khiễng
-4.92313	khiễu
-4.92313	khiệc
-4.92313	khiệm
-4.92313	khiện
-4.92313	khiệng
-4.92313	khiệp
-4.92313	khiệt
-4.92313	khiệu
-4.175079	kho	-0.09968933
-4.92313	khoa
-4.92313	khoai
-4.92313	khoam
-4.92313	khoan
-4.92313	khoang
-4.92313	khoanh
-4.92313	khoao
-4.92313	khoay
-4.92313	khoe
-4.92313	khoem
-4.92313	khoen
-4.92313	khoeo
-4.92313	khoi
-4.92313	khom
-4.92313	khon
-4.92313	khong
-4.92313	khoong
-4.92313	khoài
-4.92313	khoàm
-4.92313	khoàn
-4.92313	khoàng
-4.92313	khoành
-4.92313	khoào
-4.92313	khoày
-4.92313	khoác
-4.92313	khoách
-4.92313	khoái
-4.92313	khoám
-4.92313	khoán
-4.92313	khoáng
-4.92313	khoánh
-4.92313	khoáo
-4.92313	khoáp
-4.92313	khoát
-4.92313	khoáy
-4.92313	khoãi
-4.92313	khoãm
-4.92313	khoãn
-4.92313	khoãng
-4.92313	khoãnh
-4.92313	khoão
-4.92313	khoãy
-4.92313	khoèm
-4.92313	khoèn
-4.92313	khoèo
-4.92313	khoém
-4.92313	khoén
-4.92313	khoéo
-4.92313	khoét
-4.92313	khoòng
-4.92313	khoóc
-4.92313	khoóng
-4.92313	khoõng
-4.92313	khoăm
-4.92313	khoăn
-4.92313	khoăng
-4.92313	khoạc
-4.92313	khoạch
-4.92313	khoại
-4.92313	khoạm
-4.92313	khoạn
-4.92313	khoạng
-4.92313	khoạnh
-4.92313	khoạo
-4.92313	khoạp
-4.92313	khoạt
-4.92313	khoạy
-4.92313	khoải
-4.92313	khoảm
-3.795175	khoản	-0.09945016
-2.835323	khoảng	-0.1634715
-4.92313	khoảnh
-4.92313	khoảo
-4.92313	khoảy
-4.92313	khoắc
-4.92313	khoắm
-4.92313	khoắn
-4.92313	khoắng
-4.92313	khoắt
-4.92313	khoằm
-4.92313	khoằn
-4.92313	khoằng
-4.92313	khoẳm
-4.92313	khoẳn
-4.92313	khoẳng
-4.92313	khoẵm
-4.92313	khoẵn
-4.92313	khoẵng
-4.92313	khoặc
-4.92313	khoặm
-4.92313	khoặn
-4.92313	khoặng
-4.92313	khoặt
-4.92313	khoẹm
-4.92313	khoẹn
-4.92313	khoẹo
-4.92313	khoẹt
-4.92313	khoẻm
-4.92313	khoẻn
-4.92313	khoẻo
-4.92313	khoẽm
-4.92313	khoẽn
-4.92313	khoẽo
-4.92313	khoọc
-4.92313	khoọng
-4.92313	khoỏng
-2.572489	khu	-0.1961243
-4.92313	khua
-4.92313	khui
-4.92313	khum
-4.92313	khun
-4.92313	khung
-4.92313	khuy
-4.92313	khuya
-4.92313	khuyn
-4.92313	khuynh
-4.92313	khuyu
-4.92313	khuyên
-3.795175	khuyến	-0.2162953
-4.92313	khuyết
-4.92313	khuyền
-4.92313	khuyển
-4.92313	khuyễn
-4.92313	khuyện
-4.92313	khuyệt
-4.92313	khuân
-4.92313	khuâng
-4.92313	khuây
-4.92313	khuê
-4.92313	khuênh
-4.92313	khuôi
-4.92313	khuôm
-4.92313	khuôn
-4.92313	khuông
-4.92313	khuýa
-4.92313	khuých
-4.92313	khuýn
-4.92313	khuýnh
-4.92313	khuýp
-4.92313	khuýt
-4.92313	khuýu
-4.92313	khuơ
-4.92313	khuấn
-4.92313	khuấng
-4.175079	khuất	-0.1002175
-4.92313	khuấy
-4.92313	khuần
-4.92313	khuầng
-4.92313	khuầy
-4.92313	khuẩn
-4.92313	khuẩng
-4.92313	khuẩy
-4.92313	khuẫn
-4.92313	khuẫng
-4.92313	khuẫy
-4.92313	khuận
-4.92313	khuậng
-4.92313	khuật
-4.92313	khuậy
-4.92313	khuế
-4.92313	khuếch
-4.92313	khuếnh
-4.92313	khuề
-4.92313	khuềnh
-4.92313	khuể
-4.92313	khuểnh
-4.92313	khuễ
-4.92313	khuễnh
-4.92313	khuệ
-4.92313	khuệch
-4.92313	khuệnh
-4.92313	khuốc
-4.92313	khuối
-4.92313	khuốm
-4.92313	khuốn
-4.92313	khuống
-4.92313	khuốp
-4.92313	khuốt
-4.92313	khuồi
-4.92313	khuồm
-4.92313	khuồn
-4.92313	khuồng
-4.92313	khuổi
-4.92313	khuổm
-4.92313	khuổn
-4.92313	khuổng
-4.92313	khuỗi
-4.92313	khuỗm
-4.92313	khuỗn
-4.92313	khuỗng
-4.92313	khuộc
-4.92313	khuội
-4.92313	khuộm
-4.92313	khuộn
-4.92313	khuộng
-4.92313	khuộp
-4.92313	khuột
-4.92313	khuớ
-4.92313	khuờ
-4.92313	khuở
-4.92313	khuỡ
-4.92313	khuợ
-4.92313	khuỳa
-4.92313	khuỳn
-4.92313	khuỳnh
-4.92313	khuỳu
-4.92313	khuỵa
-4.92313	khuỵch
-4.92313	khuỵn
-4.92313	khuỵnh
-4.92313	khuỵp
-4.92313	khuỵt
-4.92313	khuỵu
-4.92313	khuỷa
-4.92313	khuỷn
-4.92313	khuỷnh
-4.92313	khuỷu
-4.92313	khuỹa
-4.92313	khuỹn
-4.92313	khuỹnh
-4.92313	khuỹu
-4.92313	khy
-4.92313	khà
-4.92313	khài
-4.92313	khàm
-4.92313	khàn
-4.92313	khàng
-4.92313	khành
-4.92313	khào
-4.92313	khàu
-4.92313	khày
-3.259804	khá	-0.09807783
-2.753291	khác	-0.2524846
-3.400219	khách	-0.07184373
-4.92313	khái
-4.92313	khám
-4.92313	khán
-4.175079	kháng	-0.09962327
-3.795175	khánh	-0.1921399
-4.92313	kháo
-4.92313	kháp
-4.92313	khát
-4.175079	kháu	-0.1002953
-4.92313	kháy
-4.92313	khâm
-4.92313	khân
-4.92313	khâng
-4.92313	khâu
-4.92313	khây
-4.92313	khã
-4.92313	khãi
-4.92313	khãm
-4.92313	khãn
-4.92313	khãng
-4.92313	khãnh
-4.92313	khão
-4.92313	khãu
-4.92313	khãy
-4.92313	khè
-4.92313	khèm
-4.92313	khèn
-4.92313	khèng
-4.92313	khèo
-4.92313	khé
-4.92313	khéc
-4.92313	khém
-4.92313	khén
-4.92313	khéng
-4.92313	khéo
-4.92313	khép
-4.92313	khét
-4.175079	khê	-0.09876353
-4.92313	khêm
-4.92313	khên
-4.92313	khênh
-4.92313	khêu
-4.92313	khì
-4.92313	khìa
-4.92313	khìm
-4.92313	khìn
-4.92313	khình
-4.92313	khìu
-4.175079	khí	-0.1002547
-4.92313	khía
-4.175079	khích	-0.09573297
-4.92313	khím
-4.92313	khín
-4.92313	khính
-4.92313	khíp
-4.92313	khít
-4.92313	khíu
-4.92313	khò
-4.92313	khòa
-4.92313	khòe
-4.92313	khòi
-4.92313	khòm
-4.92313	khòn
-4.92313	khòng
-2.684319	khó	-0.2769429
-4.92313	khóa
-3.609024	khóc	-0.1735223
-4.92313	khóe
-4.92313	khói
-4.92313	khóm
-4.92313	khón
-4.92313	khóng
-4.92313	khóp
-4.92313	khót
-3.795175	khô	-0.07539865
-4.175079	khôi	-0.1001515
-4.92313	khôm
-4.92313	khôn
-2.159336	không	-0.1916877
-4.92313	khõ
-4.92313	khõa
-4.92313	khõe
-4.92313	khõi
-4.92313	khõm
-4.92313	khõn
-4.92313	khõng
-4.92313	khù
-4.92313	khùa
-4.92313	khùi
-4.92313	khùm
-4.92313	khùn
-4.92313	khùng
-4.92313	khùy
-4.92313	khú
-4.92313	khúa
-4.175079	khúc	-0.09949111
-4.92313	khúi
-4.92313	khúm
-4.92313	khún
-4.92313	khúng
-4.92313	khúp
-4.92313	khút
-4.92313	khúy
-4.92313	khý
-4.92313	khăm
-4.175079	khăn	-0.06879175
-4.92313	khăng
-4.92313	khĩ
-4.92313	khĩa
-4.92313	khĩm
-4.92313	khĩn
-4.92313	khĩnh
-4.92313	khĩu
-4.92313	khũ
-4.92313	khũa
-4.92313	khũi
-4.92313	khũm
-4.92313	khũn
-4.92313	khũng
-4.92313	khũy
-4.92313	khơ
-4.92313	khơi
-4.92313	khơm
-4.92313	khơn
-4.92313	khư
-4.92313	khưa
-4.92313	khưi
-4.92313	khưm
-4.92313	khưn
-4.92313	khưng
-4.92313	khưu
-4.92313	khươi
-4.92313	khươm
-4.92313	khươn
-4.92313	khương
-4.92313	khươu
-4.92313	khước
-4.92313	khưới
-4.92313	khướm
-4.92313	khướn
-4.92313	khướng
-4.92313	khướp
-4.92313	khướt
-4.92313	khướu
-4.92313	khười
-4.92313	khườm
-4.92313	khườn
-4.92313	khường
-4.92313	khườu
-4.92313	khưởi
-4.92313	khưởm
-4.92313	khưởn
-4.92313	khưởng
-4.92313	khưởu
-4.92313	khưỡi
-4.92313	khưỡm
-4.92313	khưỡn
-4.92313	khưỡng
-4.92313	khưỡu
-4.92313	khược
-4.92313	khượi
-4.92313	khượm
-4.92313	khượn
-4.92313	khượng
-4.92313	khượp
-4.92313	khượt
-4.92313	khượu
-4.92313	khạ
-4.92313	khạc
-4.92313	khạch
-4.92313	khại
-4.92313	khạm
-4.92313	khạn
-4.92313	khạng
-4.92313	khạnh
-4.92313	khạo
-4.92313	khạp
-4.92313	khạt
-4.92313	khạu
-4.92313	khạy
-3.609024	khả	-0.1733783
-4.92313	khải
-4.92313	khảm
-4.92313	khản
-4.92313	khảng
-4.92313	khảnh
-4.92313	khảo
-4.92313	khảu
-4.92313	khảy
-4.92313	khấc
-4.92313	khấm
-4.92313	khấn
-4.92313	khấng
-4.92313	khấp
-4.92313	khất
-4.92313	khấu
-4.92313	khấy
-4.92313	khầm
-4.92313	khần
-4.92313	khầng
-4.92313	khầu
-4.92313	khầy
-4.92313	khẩm
-4.175079	khẩn	-0.1002953
-4.92313	khẩng
-3.795175	khẩu	-0.07017814
-4.92313	khẩy
-4.92313	khẫm
-4.92313	khẫn
-4.92313	khẫng
-4.92313	khẫu
-4.92313	khẫy
-4.92313	khậc
-4.92313	khậm
-4.92313	khận
-4.92313	khậng
-4.92313	khập
-4.92313	khật
-4.92313	khậu
-4.92313	khậy
-3.609024	khắc	-0.1497531
-4.92313	khắm
-4.92313	khắn
-4.92313	khắng
-4.92313	khắp
-4.92313	khắt
-4.92313	khằm
-4.92313	khằn
-4.92313	khằng
-4.92313	khẳm
-4.92313	khẳn
-3.795175	khẳng	-0.2154911
-4.92313	khẵm
-4.92313	khẵn
-4.92313	khẵng
-4.92313	khặc
-4.92313	khặm
-4.92313	khặn
-4.92313	khặng
-4.92313	khặp
-4.92313	khặt
-4.92313	khẹ
-4.92313	khẹc
-4.92313	khẹm
-4.92313	khẹn
-4.92313	khẹng
-4.92313	khẹo
-4.92313	khẹp
-4.92313	khẹt
-4.92313	khẻ
-4.92313	khẻm
-4.92313	khẻn
-4.92313	khẻng
-4.92313	khẻo
-4.92313	khẽ
-4.92313	khẽm
-4.92313	khẽn
-4.92313	khẽng
-4.92313	khẽo
-4.92313	khế
-4.92313	khếch
-4.92313	khếm
-4.92313	khến
-4.92313	khếnh
-4.92313	khếp
-4.92313	khết
-4.92313	khếu
-4.92313	khề
-4.92313	khềm
-4.92313	khền
-4.92313	khềnh
-4.92313	khều
-4.92313	khể
-4.92313	khểm
-4.92313	khển
-4.92313	khểnh
-4.92313	khểu
-4.92313	khễ
-4.92313	khễm
-4.92313	khễn
-4.92313	khễnh
-4.92313	khễu
-4.92313	khệ
-4.92313	khệch
-4.92313	khệm
-4.92313	khện
-4.92313	khệnh
-4.92313	khệp
-4.92313	khệt
-4.92313	khệu
-4.92313	khỉ
-4.92313	khỉa
-4.92313	khỉm
-4.92313	khỉn
-4.175079	khỉnh	-0.09497366
-4.92313	khỉu
-4.92313	khị
-4.92313	khịa
-4.92313	khịch
-4.92313	khịm
-4.92313	khịn
-4.92313	khịnh
-4.92313	khịp
-4.92313	khịt
-4.92313	khịu
-4.92313	khọ
-4.92313	khọa
-4.92313	khọc
-4.92313	khọe
-4.92313	khọi
-4.92313	khọm
-4.92313	khọn
-4.92313	khọng
-4.92313	khọp
-4.92313	khọt
-4.92313	khỏ
-4.92313	khỏa
-4.92313	khỏe
-4.175079	khỏi	-0.1002175
-4.92313	khỏm
-4.92313	khỏn
-4.92313	khỏng
-4.92313	khố
-4.92313	khốc
-3.795175	khối	-0.09938405
-4.92313	khốm
-4.92313	khốn
-4.92313	khống
-4.92313	khốp
-4.92313	khốt
-4.92313	khồ
-4.92313	khồi
-4.92313	khồm
-4.92313	khồn
-4.92313	khồng
-4.92313	khổ
-4.92313	khổi
-4.92313	khổm
-4.92313	khổn
-4.92313	khổng
-4.92313	khỗ
-4.92313	khỗi
-4.92313	khỗm
-4.92313	khỗn
-4.92313	khỗng
-4.92313	khộ
-4.92313	khộc
-4.92313	khội
-4.92313	khộm
-4.92313	khộn
-4.92313	khộng
-4.92313	khộp
-4.92313	khột
-4.92313	khớ
-4.92313	khới
-4.92313	khớm
-4.92313	khớn
-3.795175	khớp	-0.2162953
-4.92313	khớt
-4.92313	khờ
-4.92313	khời
-4.92313	khờm
-4.92313	khờn
-4.92313	khở
-3.609024	khởi	-0.1739184
-4.92313	khởm
-4.92313	khởn
-4.92313	khỡ
-4.92313	khỡi
-4.92313	khỡm
-4.92313	khỡn
-4.92313	khợ
-4.92313	khợi
-4.92313	khợm
-4.92313	khợn
-4.92313	khợp
-4.92313	khợt
-4.92313	khụ
-4.92313	khụa
-4.92313	khục
-4.92313	khụi
-4.92313	khụm
-4.92313	khụn
-4.92313	khụng
-4.92313	khụp
-4.92313	khụt
-4.92313	khụy
-4.92313	khủ
-4.92313	khủa
-4.92313	khủi
-4.92313	khủm
-4.92313	khủn
-4.92313	khủng
-4.92313	khủy
-4.92313	khứ
-4.92313	khứa
-4.92313	khức
-4.92313	khứi
-4.92313	khứm
-4.92313	khứn
-4.92313	khứng
-4.92313	khứt
-4.92313	khứu
-4.92313	khừ
-4.92313	khừa
-4.92313	khừi
-4.92313	khừm
-4.92313	khừn
-4.92313	khừng
-4.92313	khừu
-4.92313	khử
-4.92313	khửa
-4.92313	khửi
-4.92313	khửm
-4.92313	khửn
-4.92313	khửng
-4.92313	khửu
-4.92313	khữ
-4.92313	khữa
-4.92313	khữi
-4.92313	khữm
-4.92313	khữn
-4.92313	khững
-4.92313	khữu
-4.92313	khự
-4.92313	khựa
-4.92313	khực
-4.92313	khựi
-4.92313	khựm
-4.92313	khựn
-4.92313	khựng
-4.92313	khựt
-4.92313	khựu
-4.92313	khỳ
-4.92313	khỵ
-4.92313	khỷ
-4.92313	khỹ
-4.175079	ki	-0.1002953
-4.92313	kia
-3.609024	kim	-0.1737864
-4.92313	kin
-2.882992	kinh	-0.5143072
-4.92313	kiu
-4.92313	kiêm
-4.175079	kiên	-0.1002547
-4.92313	kiêng
-4.92313	kiêu
-4.92313	kiếc
-4.92313	kiếm
-3.068768	kiến	-0.1471429
-4.92313	kiếng
-4.92313	kiếp
-4.92313	kiết
-4.92313	kiếu
-4.92313	kiềm
-4.92313	kiền
-4.92313	kiềng
-4.92313	kiều
-2.997644	kiểm	-0.3611965
-4.92313	kiển
-4.92313	kiểng
-3.795175	kiểu	-0.1002257
-4.92313	kiễm
-4.92313	kiễn
-4.92313	kiễng
-4.92313	kiễu
-4.92313	kiệc
-4.92313	kiệm
-3.609024	kiện	-0.06892969
-4.92313	kiệng
-4.92313	kiệp
-4.92313	kiệt
-4.175079	kiệu	-0.0951072
-4.92313	ky
-4.92313	kè
-4.92313	kèm
-4.92313	kèn
-4.92313	kèng
-4.92313	kèo
-4.92313	ké
-4.92313	kéc
-4.175079	kém	-0.0761399
-4.92313	kén
-4.92313	kéng
-3.795175	kéo	-0.2162175
-4.92313	kép
-4.92313	két
-4.175079	kê	-0.09982143
-4.92313	kêm
-4.92313	kên
-4.175079	kênh	-0.1002953
-4.92313	kêu
-4.92313	kì
-4.92313	kìa
-4.92313	kìm
-4.92313	kìn
-4.92313	kình
-4.92313	kìu
-4.92313	kí
-4.92313	kía
-4.92313	kích
-4.92313	kím
-4.92313	kín
-4.92313	kính
-4.92313	kíp
-4.92313	kít
-4.92313	kíu
-3.400219	ký	-0.08941056
-4.92313	kĩ
-4.92313	kĩa
-4.92313	kĩm
-4.92313	kĩn
-4.92313	kĩnh
-4.92313	kĩu
-4.92313	kẹ
-4.92313	kẹc
-4.92313	kẹm
-4.92313	kẹn
-4.92313	kẹng
-4.92313	kẹo
-4.92313	kẹp
-4.175079	kẹt	-0.09586628
-4.92313	kẻ
-4.92313	kẻm
-4.92313	kẻn
-4.92313	kẻng
-4.92313	kẻo
-4.175079	kẽ	-0.09677298
-4.92313	kẽm
-4.92313	kẽn
-4.92313	kẽng
-4.92313	kẽo
-3.259804	kế	-0.3444411
-4.92313	kếch
-4.92313	kếm
-4.92313	kến
-4.92313	kếnh
-4.92313	kếp
-2.684319	kết	-0.1703241
-4.92313	kếu
-4.175079	kề	-0.09480806
-4.92313	kềm
-4.92313	kền
-4.92313	kềnh
-4.92313	kều
-3.795175	kể	-0.09892108
-4.92313	kểm
-4.92313	kển
-4.92313	kểnh
-4.92313	kểu
-4.92313	kễ
-4.92313	kễm
-4.92313	kễn
-4.92313	kễnh
-4.92313	kễu
-4.92313	kệ
-4.92313	kệch
-4.92313	kệm
-4.92313	kện
-4.92313	kệnh
-4.92313	kệp
-4.92313	kệt
-4.92313	kệu
-4.92313	kỉ
-4.92313	kỉa
-4.92313	kỉm
-4.92313	kỉn
-4.92313	kỉnh
-4.92313	kỉu
-4.92313	kị
-4.92313	kịa
-4.92313	kịch
-4.92313	kịm
-4.92313	kịn
-4.92313	kịnh
-3.795175	kịp	-0.2152928
-4.92313	kịt
-4.92313	kịu
-2.997644	kỳ	-0.130903
-4.92313	kỵ
-3.795175	kỷ	-0.1002547
-3.609024	kỹ	-0.1737458
-3.795175	la	-0.06897752
-4.92313	lai
-4.175079	lam	-0.1002547
-3.609024	lan	-0.09874766
-4.175079	lang	-0.09644034
-4.92313	lanh
-4.175079	lao	-0.1002953
-4.92313	lau
-4.92313	lay
-3.609024	le	-0.09180748
-4.92313	lem
-4.92313	len
-4.92313	leng
-4.92313	leo
-4.92313	li
-4.92313	lia
-4.92313	lim
-4.92313	lin
-3.795175	linh	-0.08877935
-4.92313	liu
-4.175079	liêm	-0.0761399
-2.624814	liên	-0.2353217
-4.92313	liêng
-4.175079	liêu	-0.1002953
-4.92313	liếc
-4.92313	liếm
-4.92313	liến
-4.92313	liếng
-4.92313	liếp
-4.92313	liết
-4.92313	liếu
-4.92313	liềm
-3.400219	liền	-0.4353801
-4.92313	liềng
-4.92313	liều
-4.92313	liểm
-4.92313	liển
-4.92313	liểng
-4.92313	liểu
-4.92313	liễm
-4.92313	liễn
-4.92313	liễng
-4.92313	liễu
-4.92313	liệc
-4.92313	liệm
-4.92313	liện
-4.92313	liệng
-4.92313	liệp
-3.795175	liệt	-0.06926103
-4.175079	liệu	-0.07363185
-4.175079	lo	-0.1002953
-4.92313	loa
-4.92313	loai
-4.92313	loam
-4.175079	loan	-0.09790207
-4.92313	loang
-4.92313	loanh
-4.92313	loao
-4.92313	loay
-4.92313	loe
-4.92313	loem
-4.92313	loen
-4.92313	loeo
-4.92313	loi
-4.92313	lom
-4.92313	lon
-3.609024	long	-0.07044971
-4.92313	loong
-4.92313	loài
-4.92313	loàm
-4.92313	loàn
-4.92313	loàng
-4.92313	loành
-4.92313	loào
-4.92313	loày
-4.92313	loác
-4.92313	loách
-4.92313	loái
-4.92313	loám
-4.92313	loán
-4.92313	loáng
-4.92313	loánh
-4.92313	loáo
-4.92313	loáp
-4.92313	loát
-4.92313	loáy
-4.92313	loãi
-4.92313	loãm
-4.92313	loãn
-4.92313	loãng
-4.92313	loãnh
-4.92313	loão
-4.92313	loãy
-4.92313	loèm
-4.92313	loèn
-4.92313	loèo
-4.92313	loém
-4.92313	loén
-4.92313	loéo
-4.92313	loét
-4.92313	loòng
-4.92313	loóc
-4.92313	loóng
-4.92313	loõng
-4.92313	loăm
-4.92313	loăn
-4.92313	loăng
-4.92313	loạc
-4.92313	loạch
-3.400219	loại	-0.1260851
-4.92313	loạm
-4.92313	loạn
-4.92313	loạng
-4.92313	loạnh
-4.92313	loạo
-4.92313	loạp
-4.92313	loạt
-4.92313	loạy
-4.92313	loải
-4.92313	loảm
-4.92313	loản
-4.92313	loảng
-4.92313	loảnh
-4.92313	loảo
-4.92313	loảy
-4.92313	loắc
-4.92313	loắm
-4.92313	loắn
-4.92313	loắng
-4.92313	loắt
-4.92313	loằm
-4.92313	loằn
-4.92313	loằng
-4.92313	loẳm
-4.92313	loẳn
-4.92313	loẳng
-4.92313	loẵm
-4.92313	loẵn
-4.92313	loẵng
-4.92313	loặc
-4.92313	loặm
-4.92313	loặn
-4.92313	loặng
-4.92313	loặt
-4.92313	loẹm
-4.92313	loẹn
-4.92313	loẹo
-4.92313	loẹt
-4.92313	loẻm
-4.92313	loẻn
-4.92313	loẻo
-4.92313	loẽm
-4.92313	loẽn
-4.92313	loẽo
-4.92313	loọc
-4.92313	loọng
-4.92313	loỏng
-4.92313	lu
-4.92313	lua
-4.92313	lui
-4.92313	lum
-4.92313	lun
-4.92313	lung
-4.92313	luy
-4.92313	luya
-4.92313	luyn
-4.92313	luynh
-4.92313	luyu
-4.92313	luyên
-4.92313	luyến
-4.92313	luyết
-4.92313	luyền
-4.92313	luyển
-4.92313	luyễn
-4.175079	luyện	-0.1000855
-4.92313	luyệt
-4.92313	luân
-4.92313	luâng
-4.92313	luây
-4.92313	luê
-4.92313	luênh
-4.92313	luôi
-4.92313	luôm
-4.175079	luôn	-0.0990944
-4.92313	luông
-4.92313	luýa
-4.92313	luých
-4.92313	luýn
-4.92313	luýnh
-4.92313	luýp
-4.92313	luýt
-4.92313	luýu
-4.92313	luơ
-4.92313	luấn
-4.92313	luấng
-4.92313	luất
-4.92313	luấy
-4.92313	luần
-4.92313	luầng
-4.92313	luầy
-4.92313	luẩn
-4.92313	luẩng
-4.92313	luẩy
-4.92313	luẫn
-4.92313	luẫng
-4.92313	luẫy
-4.175079	luận	-0.0951072
-4.92313	luậng
-4.175079	luật	-0.06036787
-4.92313	luậy
-4.92313	luế
-4.92313	luếch
-4.92313	luếnh
-4.92313	luề
-4.92313	luềnh
-4.92313	luể
-4.92313	luểnh
-4.92313	luễ
-4.92313	luễnh
-4.92313	luệ
-4.92313	luệch
-4.92313	luệnh
-4.92313	luốc
-4.92313	luối
-4.92313	luốm
-4.92313	luốn
-4.92313	luống
-4.92313	luốp
-4.92313	luốt
-4.92313	luồi
-4.92313	luồm
-4.92313	luồn
-4.175079	luồng	-0.1002547
-4.92313	luổi
-4.92313	luổm
-4.92313	luổn
-4.92313	luổng
-4.92313	luỗi
-4.92313	luỗm
-4.92313	luỗn
-4.92313	luỗng
-4.92313	luộc
-4.92313	luội
-4.92313	luộm
-4.92313	luộn
-4.92313	luộng
-4.92313	luộp
-4.92313	luột
-4.92313	luớ
-4.92313	luờ
-4.92313	luở
-4.92313	luỡ
-4.92313	luợ
-4.92313	luỳa
-4.92313	luỳn
-4.92313	luỳnh
-4.92313	luỳu
-4.92313	luỵa
-4.92313	luỵch
-4.92313	luỵn
-4.92313	luỵnh
-4.92313	luỵp
-4.92313	luỵt
-4.92313	luỵu
-4.92313	luỷa
-4.92313	luỷn
-4.92313	luỷnh
-4.92313	luỷu
-4.92313	luỹa
-4.92313	luỹn
-4.92313	luỹnh
-4.92313	luỹu
-4.92313	ly
-2.159336	là	-0.09685273
-4.92313	lài
-2.597864	làm	-0.1337523
-4.92313	làn
-3.795175	làng	-0.1001885
-4.175079	lành	-0.1002953
-3.609024	lào	-0.3104413
-4.92313	làu
-4.92313	lày
-4.92313	lá
-4.175079	lác	-0.1002953
-4.92313	lách
-4.92313	lái
-4.92313	lám
-4.92313	lán
-4.175079	láng	-0.1002953
-4.92313	lánh
-4.92313	láo
-4.92313	láp
-4.92313	lát
-4.92313	láu
-4.92313	láy
-4.175079	lâm	-0.0761399
-4.92313	lân
-4.92313	lâng
-3.400219	lâu	-0.07342136
-4.92313	lây
-4.92313	lã
-2.997644	lãi	-0.1405762
-4.175079	lãm	-0.09925182
-4.92313	lãn
-4.175079	lãng	-0.1002547
-3.609024	lãnh	-0.3104008
-4.92313	lão
-4.92313	lãu
-4.92313	lãy
-4.92313	lè
-4.92313	lèm
-4.92313	lèn
-4.92313	lèng
-4.92313	lèo
-4.92313	lé
-4.92313	léc
-4.92313	lém
-4.92313	lén
-4.92313	léng
-4.92313	léo
-4.92313	lép
-4.92313	lét
-4.92313	lê
-4.92313	lêm
-2.835323	lên	-0.08544062
-4.92313	lênh
-4.92313	lêu
-4.92313	lì
-4.175079	lìa	-0.1001515
-4.92313	lìm
-4.92313	lìn
-4.92313	lình
-4.92313	lìu
-4.92313	lí
-4.92313	lía
-4.92313	lích
-4.92313	lím
-4.92313	lín
-4.92313	lính
-4.92313	líp
-4.92313	lít
-4.92313	líu
-4.92313	lò
-4.92313	lòa
-4.92313	lòe
-4.92313	lòi
-4.92313	lòm
-4.92313	lòn
-3.609024	lòng	-0.2178235
-4.92313	ló
-4.92313	lóa
-4.92313	lóc
-4.92313	lóe
-4.92313	lói
-4.92313	lóm
-4.92313	lón
-4.92313	lóng
-4.92313	lóp
-4.92313	lót
-4.175079	lô	-0.1001515
-4.92313	lôi
-4.92313	lôm
-4.92313	lôn
-4.92313	lông
-4.92313	lõ
-4.92313	lõa
-4.92313	lõe
-4.175079	lõi	-0.09982143
-4.92313	lõm
-4.92313	lõn
-4.175079	lõng	-0.1002547
-4.92313	lù
-4.92313	lùa
-4.175079	lùi	-0.09526608
-4.92313	lùm
-4.92313	lùn
-4.92313	lùng
-4.92313	lùy
-4.92313	lú
-3.400219	lúa	-0.1498301
-3.400219	lúc	-0.09632457
-4.92313	lúi
-4.92313	lúm
-4.92313	lún
-3.795175	lúng	-0.2162953
-4.92313	lúp
-4.92313	lút
-4.92313	lúy
-3.609024	lý	-0.08926276
-3.795175	lăm	-0.1148779
-4.92313	lăn
-4.92313	lăng
-4.92313	lĩ
-4.92313	lĩa
-4.92313	lĩm
-4.92313	lĩn
-3.609024	lĩnh	-0.3104008
-4.92313	lĩu
-4.92313	lũ
-4.92313	lũa
-4.92313	lũi
-4.92313	lũm
-4.92313	lũn
-4.92313	lũng
-4.92313	lũy
-4.92313	lơ
-4.92313	lơi
-4.92313	lơm
-4.92313	lơn
-4.92313	lư
-4.92313	lưa
-4.92313	lưi
-4.92313	lưm
-4.92313	lưn
-4.92313	lưng
-4.92313	lưu
-4.92313	lươi
-4.92313	lươm
-4.92313	lươn
-3.609024	lương	-0.1724522
-4.92313	lươu
-4.92313	lước
-3.609024	lưới	-0.1694622
-4.92313	lướm
-4.92313	lướn
-4.92313	lướng
-4.92313	lướp
-4.92313	lướt
-4.92313	lướu
-4.92313	lười
-4.92313	lườm
-4.92313	lườn
-4.175079	lường	-0.0761399
-4.92313	lườu
-4.92313	lưởi
-4.92313	lưởm
-4.92313	lưởn
-4.92313	lưởng
-4.92313	lưởu
-4.92313	lưỡi
-4.92313	lưỡm
-4.92313	lưỡn
-4.92313	lưỡng
-4.92313	lưỡu
-4.92313	lược
-4.92313	lượi
-4.92313	lượm
-4.92313	lượn
-2.882992	lượng	-0.06328647
-4.92313	lượp
-3.795175	lượt	-0.09586628
-4.92313	lượu
-4.92313	lạ
-3.259804	lạc	-0.1158278
-4.92313	lạch
-2.684319	lại	-0.07844975
-4.92313	lạm
-4.92313	lạn
-4.92313	lạng
-4.175079	lạnh	-0.09896208
-4.92313	lạo
-4.92313	lạp
-4.92313	lạt
-4.92313	lạu
-4.92313	lạy
-4.92313	lả
-4.92313	lải
-4.92313	lảm
-4.92313	lản
-4.92313	lảng
-4.92313	lảnh
-4.92313	lảo
-4.92313	lảu
-4.92313	lảy
-4.92313	lấc
-4.92313	lấm
-4.92313	lấn
-4.92313	lấng
-4.92313	lấp
-4.92313	lất
-4.92313	lấu
-3.609024	lấy	-0.07556488
-4.175079	lầm	-0.0951072
-3.400219	lần	-0.09640478
-4.92313	lầng
-4.92313	lầu
-4.92313	lầy
-4.92313	lẩm
-4.92313	lẩn
-4.92313	lẩng
-4.92313	lẩu
-4.92313	lẩy
-4.92313	lẫm
-4.92313	lẫn
-4.92313	lẫng
-4.92313	lẫu
-4.92313	lẫy
-4.92313	lậc
-4.92313	lậm
-4.92313	lận
-4.92313	lậng
-3.400219	lập	-0.1852582
-4.92313	lật
-4.92313	lậu
-4.92313	lậy
-4.92313	lắc
-4.175079	lắm	-0.0761399
-4.92313	lắn
-3.609024	lắng	-0.3102975
-4.92313	lắp
-4.92313	lắt
-4.92313	lằm
-4.92313	lằn
-4.92313	lằng
-4.92313	lẳm
-4.92313	lẳn
-4.92313	lẳng
-4.92313	lẵm
-4.92313	lẵn
-4.92313	lẵng
-4.92313	lặc
-4.92313	lặm
-4.175079	lặn	-0.1002953
-4.92313	lặng
-4.92313	lặp
-4.92313	lặt
-4.92313	lẹ
-4.92313	lẹc
-4.92313	lẹm
-4.92313	lẹn
-4.92313	lẹng
-4.92313	lẹo
-4.92313	lẹp
-4.92313	lẹt
-4.175079	lẻ	-0.09730469
-4.92313	lẻm
-4.92313	lẻn
-4.92313	lẻng
-4.92313	lẻo
-4.175079	lẽ	-0.0992928
-4.92313	lẽm
-4.92313	lẽn
-4.92313	lẽng
-4.92313	lẽo
-4.92313	lế
-4.92313	lếch
-4.92313	lếm
-4.92313	lến
-4.92313	lếnh
-4.92313	lếp
-4.92313	lết
-4.92313	lếu
-4.175079	lề	-0.1002953
-4.92313	lềm
-4.92313	lền
-4.92313	lềnh
-4.92313	lều
-4.92313	lể
-4.92313	lểm
-4.92313	lển
-4.92313	lểnh
-4.92313	lểu
-3.259804	lễ	-0.1608088
-4.92313	lễm
-4.92313	lễn
-4.92313	lễnh
-4.92313	lễu
-3.795175	lệ	-0.0987225
-4.92313	lệch
-4.92313	lệm
-4.92313	lện
-4.175079	lệnh	-0.0984576
-4.92313	lệp
-4.92313	lệt
-4.92313	lệu
-4.92313	lỉ
-4.92313	lỉa
-4.92313	lỉm
-4.92313	lỉn
-4.92313	lỉnh
-4.92313	lỉu
-4.92313	lị
-4.92313	lịa
-4.175079	lịch	-0.0761399
-4.92313	lịm
-4.92313	lịn
-4.92313	lịnh
-4.92313	lịp
-4.92313	lịt
-4.92313	lịu
-4.92313	lọ
-4.92313	lọa
-4.175079	lọc	-0.1002547
-4.92313	lọe
-4.92313	lọi
-4.92313	lọm
-4.92313	lọn
-4.92313	lọng
-4.92313	lọp
-4.175079	lọt	-0.09935892
-4.92313	lỏ
-4.92313	lỏa
-4.92313	lỏe
-4.92313	lỏi
-4.92313	lỏm
-4.92313	lỏn
-4.92313	lỏng
-4.92313	lố
-4.92313	lốc
-3.795175	lối	-0.2158875
-4.92313	lốm
-4.92313	lốn
-4.92313	lống
-4.175079	lốp	-0.1000855
-4.92313	lốt
-4.92313	lồ
-4.92313	lồi
-4.92313	lồm
-4.92313	lồn
-4.92313	lồng
-4.92313	lổ
-4.92313	lổi
-4.92313	lổm
-4.92313	lổn
-4.92313	lổng
-3.153865	lỗ	-0.1098225
-4.92313	lỗi
-4.92313	lỗm
-4.92313	lỗn
-4.92313	lỗng
-4.92313	lộ
-3.795175	lộc	-0.09643668
-4.92313	lội
-4.92313	lộm
-4.92313	lộn
-4.92313	lộng
-4.92313	lộp
-4.92313	lột
-4.92313	lớ
-4.92313	lới
-4.92313	lớm
-2.792373	lớn	-0.2001205
-4.175079	lớp	-0.0995572
-4.92313	lớt
-4.92313	lờ
-3.795175	lời	-0.09829591
-4.92313	lờm
-4.92313	lờn
-4.92313	lở
-4.92313	lởi
-4.92313	lởm
-4.92313	lởn
-4.92313	lỡ
-4.92313	lỡi
-4.92313	lỡm
-4.92313	lỡn
-4.92313	lợ
-2.835323	lợi	-0.1826331
-4.92313	lợm
-4.92313	lợn
-4.92313	lợp
-4.92313	lợt
-4.92313	lụ
-4.92313	lụa
-4.92313	lục
-4.92313	lụi
-4.92313	lụm
-4.92313	lụn
-4.92313	lụng
-4.92313	lụp
-4.92313	lụt
-4.92313	lụy
-4.92313	lủ
-4.92313	lủa
-4.92313	lủi
-4.92313	lủm
-4.92313	lủn
-4.92313	lủng
-4.92313	lủy
-4.92313	lứ
-4.92313	lứa
-4.92313	lức
-4.92313	lứi
-4.92313	lứm
-4.92313	lứn
-4.92313	lứng
-4.92313	lứt
-4.92313	lứu
-4.92313	lừ
-4.92313	lừa
-4.92313	lừi
-4.92313	lừm
-4.92313	lừn
-4.92313	lừng
-4.92313	lừu
-4.92313	lử
-4.175079	lửa	-0.09803472
-4.92313	lửi
-4.92313	lửm
-4.92313	lửn
-4.92313	lửng
-4.92313	lửu
-4.175079	lữ	-0.09982143
-4.92313	lữa
-4.92313	lữi
-4.92313	lữm
-4.92313	lữn
-4.92313	lững
-4.92313	lữu
-4.92313	lự
-4.92313	lựa
-3.068768	lực	-0.08894053
-4.92313	lựi
-4.92313	lựm
-4.92313	lựn
-4.92313	lựng
-4.92313	lựt
-4.92313	lựu
-4.92313	lỳ
-4.92313	lỵ
-4.92313	lỷ
-4.92313	lỹ
-4.175079	ma	-0.1002953
-3.259804	mai	-0.1378449
-4.92313	mam
-3.795175	man
-3.400219	mang	-0.0740777
-4.175079	manh	-0.1002953
-4.92313	mao
-4.92313	mau
-4.175079	may	-0.1002953
-4.92313	me
-4.92313	mem
-4.92313	men
-4.92313	meng
-4.92313	meo
-4.92313	mi
-4.92313	mia
-4.92313	mim
-4.92313	min
-2.997644	minh	-0.07493699
-4.92313	miu
-4.92313	miêm
-4.92313	miên
-4.92313	miêng
-4.92313	miêu
-4.92313	miếc
-4.92313	miếm
-4.92313	miến
-4.175079	miếng	-0.09889591
-4.92313	miếp
-4.92313	miết
-4.92313	miếu
-4.92313	miềm
-3.795175	miền	-0.09971445
-4.92313	miềng
-4.92313	miều
-4.92313	miểm
-4.92313	miển
-4.92313	miểng
-4.92313	miểu
-4.92313	miễm
-3.400219	miễn	-0.4352362
-4.92313	miễng
-4.92313	miễu
-4.92313	miệc
-4.92313	miệm
-4.92313	miện
-4.92313	miệng
-4.92313	miệp
-4.92313	miệt
-4.92313	miệu
-4.92313	mo
-4.92313	moa
-4.92313	moai
-4.92313	moam
-4.92313	moan
-4.92313	moang
-4.92313	moanh
-4.92313	moao
-4.92313	moay
-4.92313	moe
-4.92313	moem
-4.92313	moen
-4.92313	moeo
-4.92313	moi
-4.92313	mom
-4.92313	mon
-4.92313	mong
-4.92313	moong
-4.92313	moài
-4.92313	moàm
-4.92313	moàn
-4.92313	moàng
-4.92313	moành
-4.92313	moào
-4.92313	moày
-4.92313	moác
-4.92313	moách
-4.92313	moái
-4.92313	moám
-4.92313	moán
-4.92313	moáng
-4.92313	moánh
-4.92313	moáo
-4.92313	moáp
-4.92313	moát
-4.92313	moáy
-4.92313	moãi
-4.92313	moãm
-4.92313	moãn
-4.92313	moãng
-4.92313	moãnh
-4.92313	moão
-4.92313	moãy
-4.92313	moè
-4.92313	moèm
-4.92313	moèn
-4.92313	moèo
-4.92313	moé
-4.92313	moém
-4.92313	moén
-4.92313	moéo
-4.92313	moét
-4.92313	moòng
-4.92313	moóc
-4.92313	moóng
-4.92313	moõng
-4.92313	moăm
-4.92313	moăn
-4.92313	moăng
-4.92313	moạc
-4.92313	moạch
-4.92313	moại
-4.92313	moạm
-4.92313	moạn
-4.92313	moạng
-4.92313	moạnh
-4.92313	moạo
-4.92313	moạp
-4.92313	moạt
-4.92313	moạy
-4.92313	moải
-4.92313	moảm
-4.92313	moản
-4.92313	moảng
-4.92313	moảnh
-4.92313	moảo
-4.92313	moảy
-4.92313	moắc
-4.92313	moắm
-4.92313	moắn
-4.92313	moắng
-4.92313	moắt
-4.92313	moằm
-4.92313	moằn
-4.92313	moằng
-4.92313	moẳm
-4.92313	moẳn
-4.92313	moẳng
-4.92313	moẵm
-4.92313	moẵn
-4.92313	moẵng
-4.92313	moặc
-4.92313	moặm
-4.92313	moặn
-4.92313	moặng
-4.92313	moặt
-4.92313	moẹ
-4.92313	moẹm
-4.92313	moẹn
-4.92313	moẹo
-4.92313	moẹt
-4.92313	moẻ
-4.92313	moẻm
-4.92313	moẻn
-4.92313	moẻo
-4.92313	moẽ
-4.92313	moẽm
-4.92313	moẽn
-4.92313	moẽo
-4.92313	moọc
-4.92313	moọng
-4.92313	moỏng
-3.400219	mu	-0.09037638
-3.068768	mua	-0.1218346
-4.92313	mui
-4.92313	mum
-4.92313	mun
-4.92313	mung
-4.92313	muy
-4.92313	muya
-4.92313	muyn
-4.92313	muynh
-4.92313	muyu
-4.92313	muyên
-4.92313	muyến
-4.92313	muyết
-4.92313	muyền
-4.92313	muyển
-4.92313	muyễn
-4.92313	muyện
-4.92313	muyệt
-4.92313	muân
-4.92313	muâng
-4.92313	muây
-4.92313	muê
-4.92313	muênh
-4.92313	muôi
-4.92313	muôm
-4.92313	muôn
-4.92313	muông
-4.92313	muý
-4.92313	muýa
-4.92313	muých
-4.92313	muýn
-4.92313	muýnh
-4.92313	muýp
-4.92313	muýt
-4.92313	muýu
-4.92313	muơ
-4.92313	muấn
-4.92313	muấng
-4.92313	muất
-4.92313	muấy
-4.92313	muần
-4.92313	muầng
-4.92313	muầy
-4.92313	muẩn
